=== Run information ===

Scheme:       weka.classifiers.trees.J48 -C 0.5 -M 1
Relation:     poker_hand/training/cardnumeric/all
Instances:    25010
Attributes:   11
              S1
              C1
              S2
              C2
              S3
              C3
              S4
              C4
              S5
              C5
              CLASS
Test mode:    5-fold cross-validation

=== Classifier model (full training set) ===

J48 pruned tree
------------------

C4 <= 12
|   C2 <= 1
|   |   C3 <= 1: 3 (56.0/2.0)
|   |   C3 > 1
|   |   |   C4 <= 2
|   |   |   |   C5 <= 2: FH (1.0)
|   |   |   |   C5 > 2: 2 (20.0)
|   |   |   C4 > 2
|   |   |   |   C3 <= 6
|   |   |   |   |   C5 <= 10
|   |   |   |   |   |   C4 <= 9
|   |   |   |   |   |   |   C5 <= 5
|   |   |   |   |   |   |   |   C4 <= 4
|   |   |   |   |   |   |   |   |   C3 <= 3
|   |   |   |   |   |   |   |   |   |   C5 <= 4
|   |   |   |   |   |   |   |   |   |   |   S5 = H: 2 (0.0)
|   |   |   |   |   |   |   |   |   |   |   S5 = S: 1 (1.0)
|   |   |   |   |   |   |   |   |   |   |   S5 = D: 2 (3.0)
|   |   |   |   |   |   |   |   |   |   |   S5 = C: 1 (1.0)
|   |   |   |   |   |   |   |   |   |   C5 > 4: 1 (15.0)
|   |   |   |   |   |   |   |   |   C3 > 3
|   |   |   |   |   |   |   |   |   |   S1 = H: 2 (1.0)
|   |   |   |   |   |   |   |   |   |   S1 = S: 2 (0.0)
|   |   |   |   |   |   |   |   |   |   S1 = D: FH (1.0)
|   |   |   |   |   |   |   |   |   |   S1 = C: 2 (0.0)
|   |   |   |   |   |   |   |   C4 > 4: 2 (7.0)
|   |   |   |   |   |   |   C5 > 5
|   |   |   |   |   |   |   |   C3 <= 4
|   |   |   |   |   |   |   |   |   C4 <= 3
|   |   |   |   |   |   |   |   |   |   C3 <= 2: 1 (18.0)
|   |   |   |   |   |   |   |   |   |   C3 > 2: 2 (8.0)
|   |   |   |   |   |   |   |   |   C4 > 3
|   |   |   |   |   |   |   |   |   |   C4 <= 6
|   |   |   |   |   |   |   |   |   |   |   C5 <= 6
|   |   |   |   |   |   |   |   |   |   |   |   C4 <= 5: 1 (22.0/1.0)
|   |   |   |   |   |   |   |   |   |   |   |   C4 > 5: 2 (3.0)
|   |   |   |   |   |   |   |   |   |   |   C5 > 6
|   |   |   |   |   |   |   |   |   |   |   |   C3 <= 3: 1 (112.0)
|   |   |   |   |   |   |   |   |   |   |   |   C3 > 3
|   |   |   |   |   |   |   |   |   |   |   |   |   C4 <= 4: 2 (2.0)
|   |   |   |   |   |   |   |   |   |   |   |   |   C4 > 4: 1 (34.0)
|   |   |   |   |   |   |   |   |   |   C4 > 6
|   |   |   |   |   |   |   |   |   |   |   C5 <= 7: 2 (4.0)
|   |   |   |   |   |   |   |   |   |   |   C5 > 7
|   |   |   |   |   |   |   |   |   |   |   |   C4 <= 7: 1 (35.0)
|   |   |   |   |   |   |   |   |   |   |   |   C4 > 7
|   |   |   |   |   |   |   |   |   |   |   |   |   C5 <= 8: 2 (5.0)
|   |   |   |   |   |   |   |   |   |   |   |   |   C5 > 8
|   |   |   |   |   |   |   |   |   |   |   |   |   |   C4 <= 8: 1 (32.0)
|   |   |   |   |   |   |   |   |   |   |   |   |   |   C4 > 8
|   |   |   |   |   |   |   |   |   |   |   |   |   |   |   C5 <= 9: 2 (3.0)
|   |   |   |   |   |   |   |   |   |   |   |   |   |   |   C5 > 9: 1 (10.0)
|   |   |   |   |   |   |   |   C3 > 4
|   |   |   |   |   |   |   |   |   C4 <= 5: 2 (8.0)
|   |   |   |   |   |   |   |   |   C4 > 5
|   |   |   |   |   |   |   |   |   |   C5 <= 8
|   |   |   |   |   |   |   |   |   |   |   C4 <= 7
|   |   |   |   |   |   |   |   |   |   |   |   S4 = H
|   |   |   |   |   |   |   |   |   |   |   |   |   C5 <= 7: 2 (7.0/2.0)
|   |   |   |   |   |   |   |   |   |   |   |   |   C5 > 7: 1 (2.0)
|   |   |   |   |   |   |   |   |   |   |   |   S4 = S: 1 (7.0)
|   |   |   |   |   |   |   |   |   |   |   |   S4 = D
|   |   |   |   |   |   |   |   |   |   |   |   |   C5 <= 6: 2 (1.0)
|   |   |   |   |   |   |   |   |   |   |   |   |   C5 > 6: 1 (2.0)
|   |   |   |   |   |   |   |   |   |   |   |   S4 = C: 2 (1.0)
|   |   |   |   |   |   |   |   |   |   |   C4 > 7: 2 (4.0)
|   |   |   |   |   |   |   |   |   |   C5 > 8
|   |   |   |   |   |   |   |   |   |   |   C4 <= 6
|   |   |   |   |   |   |   |   |   |   |   |   C3 <= 5: 1 (7.0)
|   |   |   |   |   |   |   |   |   |   |   |   C3 > 5: 2 (5.0)
|   |   |   |   |   |   |   |   |   |   |   C4 > 6
|   |   |   |   |   |   |   |   |   |   |   |   C4 <= 8: 1 (34.0)
|   |   |   |   |   |   |   |   |   |   |   |   C4 > 8
|   |   |   |   |   |   |   |   |   |   |   |   |   C5 <= 9: 2 (4.0)
|   |   |   |   |   |   |   |   |   |   |   |   |   C5 > 9: 1 (10.0)
|   |   |   |   |   |   C4 > 9: 2 (9.0)
|   |   |   |   |   C5 > 10
|   |   |   |   |   |   C4 <= 5
|   |   |   |   |   |   |   C3 <= 2: 1 (37.0)
|   |   |   |   |   |   |   C3 > 2
|   |   |   |   |   |   |   |   C4 <= 3: 2 (7.0)
|   |   |   |   |   |   |   |   C4 > 3
|   |   |   |   |   |   |   |   |   C3 <= 3: 1 (19.0)
|   |   |   |   |   |   |   |   |   C3 > 3
|   |   |   |   |   |   |   |   |   |   C4 <= 4: 2 (7.0)
|   |   |   |   |   |   |   |   |   |   C4 > 4
|   |   |   |   |   |   |   |   |   |   |   C3 <= 4: 1 (14.0)
|   |   |   |   |   |   |   |   |   |   |   C3 > 4: 2 (5.0)
|   |   |   |   |   |   C4 > 5
|   |   |   |   |   |   |   C4 <= 10: 1 (281.0/1.0)
|   |   |   |   |   |   |   C4 > 10
|   |   |   |   |   |   |   |   C5 <= 12
|   |   |   |   |   |   |   |   |   C4 <= 11
|   |   |   |   |   |   |   |   |   |   C5 <= 11: 2 (6.0)
|   |   |   |   |   |   |   |   |   |   C5 > 11: 1 (18.0)
|   |   |   |   |   |   |   |   |   C4 > 11: 2 (6.0)
|   |   |   |   |   |   |   |   C5 > 12: 1 (45.0)
|   |   |   |   C3 > 6
|   |   |   |   |   C4 <= 7: 2 (12.0)
|   |   |   |   |   C4 > 7
|   |   |   |   |   |   C3 <= 9
|   |   |   |   |   |   |   C5 <= 11
|   |   |   |   |   |   |   |   C4 <= 10
|   |   |   |   |   |   |   |   |   C5 <= 8: 2 (2.0)
|   |   |   |   |   |   |   |   |   C5 > 8
|   |   |   |   |   |   |   |   |   |   C3 <= 8
|   |   |   |   |   |   |   |   |   |   |   C4 <= 8
|   |   |   |   |   |   |   |   |   |   |   |   C3 <= 7: 1 (12.0)
|   |   |   |   |   |   |   |   |   |   |   |   C3 > 7: 2 (6.0)
|   |   |   |   |   |   |   |   |   |   |   C4 > 8
|   |   |   |   |   |   |   |   |   |   |   |   C5 <= 9: 2 (1.0)
|   |   |   |   |   |   |   |   |   |   |   |   C5 > 9: 1 (25.0/1.0)
|   |   |   |   |   |   |   |   |   |   C3 > 8
|   |   |   |   |   |   |   |   |   |   |   C4 <= 9: 2 (6.0)
|   |   |   |   |   |   |   |   |   |   |   C4 > 9
|   |   |   |   |   |   |   |   |   |   |   |   C5 <= 10: 2 (1.0)
|   |   |   |   |   |   |   |   |   |   |   |   C5 > 10: 1 (3.0)
|   |   |   |   |   |   |   |   C4 > 10: 2 (6.0)
|   |   |   |   |   |   |   C5 > 11
|   |   |   |   |   |   |   |   C3 <= 7: 1 (26.0)
|   |   |   |   |   |   |   |   C3 > 7
|   |   |   |   |   |   |   |   |   C4 <= 8: 2 (2.0)
|   |   |   |   |   |   |   |   |   C4 > 8
|   |   |   |   |   |   |   |   |   |   C4 <= 11: 1 (36.0)
|   |   |   |   |   |   |   |   |   |   C4 > 11
|   |   |   |   |   |   |   |   |   |   |   C5 <= 12: 2 (3.0)
|   |   |   |   |   |   |   |   |   |   |   C5 > 12: 1 (8.0)
|   |   |   |   |   |   C3 > 9
|   |   |   |   |   |   |   S1 = H: 2 (10.0/1.0)
|   |   |   |   |   |   |   S1 = S
|   |   |   |   |   |   |   |   C3 <= 10: 1 (4.0)
|   |   |   |   |   |   |   |   C3 > 10: 2 (2.0)
|   |   |   |   |   |   |   S1 = D: 2 (7.0)
|   |   |   |   |   |   |   S1 = C
|   |   |   |   |   |   |   |   S3 = H: 2 (1.0)
|   |   |   |   |   |   |   |   S3 = S: 1 (5.0)
|   |   |   |   |   |   |   |   S3 = D
|   |   |   |   |   |   |   |   |   S2 = H: 2 (1.0)
|   |   |   |   |   |   |   |   |   S2 = S: 1 (0.0)
|   |   |   |   |   |   |   |   |   S2 = D: 1 (1.0)
|   |   |   |   |   |   |   |   |   S2 = C: 1 (0.0)
|   |   |   |   |   |   |   |   S3 = C: 1 (0.0)
|   C2 > 1
|   |   C3 <= 2
|   |   |   C1 <= 1
|   |   |   |   C4 <= 2: 3 (8.0)
|   |   |   |   C4 > 2
|   |   |   |   |   C5 <= 5
|   |   |   |   |   |   C4 <= 4
|   |   |   |   |   |   |   S1 = H: 1 (3.0)
|   |   |   |   |   |   |   S1 = S
|   |   |   |   |   |   |   |   C4 <= 3: 1 (2.0)
|   |   |   |   |   |   |   |   C4 > 3: 2 (1.0)
|   |   |   |   |   |   |   S1 = D: 2 (1.0)
|   |   |   |   |   |   |   S1 = C: 2 (2.0)
|   |   |   |   |   |   C4 > 4: 2 (4.0)
|   |   |   |   |   C5 > 5: 1 (225.0/8.0)
|   |   |   C1 > 1: 3 (35.0/2.0)
|   |   C3 > 2
|   |   |   C2 <= 8
|   |   |   |   C4 <= 5
|   |   |   |   |   C2 <= 3
|   |   |   |   |   |   C5 <= 5
|   |   |   |   |   |   |   C3 <= 4
|   |   |   |   |   |   |   |   C5 <= 4
|   |   |   |   |   |   |   |   |   C3 <= 3
|   |   |   |   |   |   |   |   |   |   C5 <= 3: 3 (2.0)
|   |   |   |   |   |   |   |   |   |   C5 > 3
|   |   |   |   |   |   |   |   |   |   |   C2 <= 2
|   |   |   |   |   |   |   |   |   |   |   |   C1 <= 1: 1 (8.0)
|   |   |   |   |   |   |   |   |   |   |   |   C1 > 1: 2 (1.0)
|   |   |   |   |   |   |   |   |   |   |   C2 > 2
|   |   |   |   |   |   |   |   |   |   |   |   C4 <= 3: 3 (1.0)
|   |   |   |   |   |   |   |   |   |   |   |   C4 > 3: 2 (5.0)
|   |   |   |   |   |   |   |   |   C3 > 3
|   |   |   |   |   |   |   |   |   |   C1 <= 2: 3 (3.0)
|   |   |   |   |   |   |   |   |   |   C1 > 2: FH (1.0)
|   |   |   |   |   |   |   |   C5 > 4
|   |   |   |   |   |   |   |   |   C1 <= 1
|   |   |   |   |   |   |   |   |   |   C3 <= 3
|   |   |   |   |   |   |   |   |   |   |   C2 <= 2
|   |   |   |   |   |   |   |   |   |   |   |   C4 <= 3: 1 (5.0)
|   |   |   |   |   |   |   |   |   |   |   |   C4 > 3
|   |   |   |   |   |   |   |   |   |   |   |   |   C4 <= 4: S (9.0/2.0)
|   |   |   |   |   |   |   |   |   |   |   |   |   C4 > 4: 1 (5.0)
|   |   |   |   |   |   |   |   |   |   |   C2 > 2: 1 (4.0)
|   |   |   |   |   |   |   |   |   |   C3 > 3: 1 (11.0)
|   |   |   |   |   |   |   |   |   C1 > 1
|   |   |   |   |   |   |   |   |   |   C1 <= 2
|   |   |   |   |   |   |   |   |   |   |   C4 <= 4: 1 (11.0/1.0)
|   |   |   |   |   |   |   |   |   |   |   C4 > 4
|   |   |   |   |   |   |   |   |   |   |   |   C2 <= 2: 2 (4.0)
|   |   |   |   |   |   |   |   |   |   |   |   C2 > 2
|   |   |   |   |   |   |   |   |   |   |   |   |   S2 = H: 1 (2.0)
|   |   |   |   |   |   |   |   |   |   |   |   |   S2 = S: 1 (0.0)
|   |   |   |   |   |   |   |   |   |   |   |   |   S2 = D: 1 (0.0)
|   |   |   |   |   |   |   |   |   |   |   |   |   S2 = C: 2 (1.0)
|   |   |   |   |   |   |   |   |   |   C1 > 2: 2 (5.0)
|   |   |   |   |   |   |   C3 > 4: 3 (4.0)
|   |   |   |   |   |   C5 > 5
|   |   |   |   |   |   |   C3 <= 4
|   |   |   |   |   |   |   |   C1 <= 1
|   |   |   |   |   |   |   |   |   C4 <= 4
|   |   |   |   |   |   |   |   |   |   C2 <= 2
|   |   |   |   |   |   |   |   |   |   |   C3 <= 3
|   |   |   |   |   |   |   |   |   |   |   |   C4 <= 3: 1 (24.0)
|   |   |   |   |   |   |   |   |   |   |   |   C4 > 3: 0 (86.0/1.0)
|   |   |   |   |   |   |   |   |   |   |   C3 > 3: 1 (36.0)
|   |   |   |   |   |   |   |   |   |   C2 > 2
|   |   |   |   |   |   |   |   |   |   |   C4 <= 3: 3 (4.0)
|   |   |   |   |   |   |   |   |   |   |   C4 > 3: 1 (61.0)
|   |   |   |   |   |   |   |   |   C4 > 4
|   |   |   |   |   |   |   |   |   |   C2 <= 2: 0 (159.0/1.0)
|   |   |   |   |   |   |   |   |   |   C2 > 2
|   |   |   |   |   |   |   |   |   |   |   C3 <= 3: 1 (25.0)
|   |   |   |   |   |   |   |   |   |   |   C3 > 3: 0 (64.0)
|   |   |   |   |   |   |   |   C1 > 1
|   |   |   |   |   |   |   |   |   C4 <= 4
|   |   |   |   |   |   |   |   |   |   C1 <= 2
|   |   |   |   |   |   |   |   |   |   |   C4 <= 3
|   |   |   |   |   |   |   |   |   |   |   |   C2 <= 2: 2 (12.0)
|   |   |   |   |   |   |   |   |   |   |   |   C2 > 2: 3 (7.0)
|   |   |   |   |   |   |   |   |   |   |   C4 > 3
|   |   |   |   |   |   |   |   |   |   |   |   C2 <= 2
|   |   |   |   |   |   |   |   |   |   |   |   |   C3 <= 3: 1 (25.0)
|   |   |   |   |   |   |   |   |   |   |   |   |   C3 > 3: 2 (14.0)
|   |   |   |   |   |   |   |   |   |   |   |   C2 > 2: 1 (56.0)
|   |   |   |   |   |   |   |   |   |   C1 > 2
|   |   |   |   |   |   |   |   |   |   |   C3 <= 3
|   |   |   |   |   |   |   |   |   |   |   |   C4 <= 3: 4 (1.0)
|   |   |   |   |   |   |   |   |   |   |   |   C4 > 3: 3 (11.0)
|   |   |   |   |   |   |   |   |   |   |   C3 > 3: 2 (16.0)
|   |   |   |   |   |   |   |   |   C4 > 4
|   |   |   |   |   |   |   |   |   |   C2 <= 2: 1 (62.0)
|   |   |   |   |   |   |   |   |   |   C2 > 2
|   |   |   |   |   |   |   |   |   |   |   C3 <= 3
|   |   |   |   |   |   |   |   |   |   |   |   C1 <= 2: 1 (29.0)
|   |   |   |   |   |   |   |   |   |   |   |   C1 > 2: 3 (4.0)
|   |   |   |   |   |   |   |   |   |   |   C3 > 3
|   |   |   |   |   |   |   |   |   |   |   |   C1 <= 2
|   |   |   |   |   |   |   |   |   |   |   |   |   C5 <= 6: S (9.0/1.0)
|   |   |   |   |   |   |   |   |   |   |   |   |   C5 > 6: 0 (80.0/1.0)
|   |   |   |   |   |   |   |   |   |   |   |   C1 > 2: 1 (21.0)
|   |   |   |   |   |   |   C3 > 4
|   |   |   |   |   |   |   |   C1 <= 1: 1 (49.0)
|   |   |   |   |   |   |   |   C1 > 1
|   |   |   |   |   |   |   |   |   C2 <= 2: 2 (18.0)
|   |   |   |   |   |   |   |   |   C2 > 2
|   |   |   |   |   |   |   |   |   |   C1 <= 2: 1 (24.0)
|   |   |   |   |   |   |   |   |   |   C1 > 2: 2 (9.0)
|   |   |   |   |   C2 > 3
|   |   |   |   |   |   C4 <= 4: 3 (20.0)
|   |   |   |   |   |   C4 > 4
|   |   |   |   |   |   |   C2 <= 4
|   |   |   |   |   |   |   |   C1 <= 3
|   |   |   |   |   |   |   |   |   C5 <= 5: 2 (5.0)
|   |   |   |   |   |   |   |   |   C5 > 5: 1 (194.0)
|   |   |   |   |   |   |   |   C1 > 3
|   |   |   |   |   |   |   |   |   C3 <= 4: 3 (6.0)
|   |   |   |   |   |   |   |   |   C3 > 4: 2 (10.0)
|   |   |   |   |   |   |   C2 > 4: 3 (16.0)
|   |   |   |   C4 > 5
|   |   |   |   |   C3 <= 11
|   |   |   |   |   |   C1 <= 2
|   |   |   |   |   |   |   C3 <= 3
|   |   |   |   |   |   |   |   C2 <= 2
|   |   |   |   |   |   |   |   |   C1 <= 1
|   |   |   |   |   |   |   |   |   |   C5 <= 6: 1 (7.0)
|   |   |   |   |   |   |   |   |   |   C5 > 6
|   |   |   |   |   |   |   |   |   |   |   C4 <= 7
|   |   |   |   |   |   |   |   |   |   |   |   C5 <= 7
|   |   |   |   |   |   |   |   |   |   |   |   |   C4 <= 6: 0 (11.0)
|   |   |   |   |   |   |   |   |   |   |   |   |   C4 > 6: 1 (3.0)
|   |   |   |   |   |   |   |   |   |   |   |   C5 > 7: 0 (122.0/1.0)
|   |   |   |   |   |   |   |   |   |   |   C4 > 7
|   |   |   |   |   |   |   |   |   |   |   |   C5 <= 10
|   |   |   |   |   |   |   |   |   |   |   |   |   C4 <= 9
|   |   |   |   |   |   |   |   |   |   |   |   |   |   C5 <= 9
|   |   |   |   |   |   |   |   |   |   |   |   |   |   |   C4 <= 8
|   |   |   |   |   |   |   |   |   |   |   |   |   |   |   |   C5 <= 8: 1 (5.0)
|   |   |   |   |   |   |   |   |   |   |   |   |   |   |   |   C5 > 8: 0 (6.0)
|   |   |   |   |   |   |   |   |   |   |   |   |   |   |   C4 > 8: 1 (6.0)
|   |   |   |   |   |   |   |   |   |   |   |   |   |   C5 > 9: 0 (18.0)
|   |   |   |   |   |   |   |   |   |   |   |   |   C4 > 9: 1 (9.0)
|   |   |   |   |   |   |   |   |   |   |   |   C5 > 10
|   |   |   |   |   |   |   |   |   |   |   |   |   C4 <= 10: 0 (83.0)
|   |   |   |   |   |   |   |   |   |   |   |   |   C4 > 10
|   |   |   |   |   |   |   |   |   |   |   |   |   |   C5 <= 11: 1 (6.0)
|   |   |   |   |   |   |   |   |   |   |   |   |   |   C5 > 11
|   |   |   |   |   |   |   |   |   |   |   |   |   |   |   C4 <= 11: 0 (14.0)
|   |   |   |   |   |   |   |   |   |   |   |   |   |   |   C4 > 11
|   |   |   |   |   |   |   |   |   |   |   |   |   |   |   |   C5 <= 12: 1 (2.0)
|   |   |   |   |   |   |   |   |   |   |   |   |   |   |   |   C5 > 12: 0 (8.0)
|   |   |   |   |   |   |   |   |   C1 > 1: 1 (96.0/7.0)
|   |   |   |   |   |   |   |   C2 > 2
|   |   |   |   |   |   |   |   |   C5 <= 9
|   |   |   |   |   |   |   |   |   |   C4 <= 8
|   |   |   |   |   |   |   |   |   |   |   C5 <= 6: 2 (3.0)
|   |   |   |   |   |   |   |   |   |   |   C5 > 6
|   |   |   |   |   |   |   |   |   |   |   |   C4 <= 6: 1 (20.0)
|   |   |   |   |   |   |   |   |   |   |   |   C4 > 6
|   |   |   |   |   |   |   |   |   |   |   |   |   C5 <= 8
|   |   |   |   |   |   |   |   |   |   |   |   |   |   C4 <= 7
|   |   |   |   |   |   |   |   |   |   |   |   |   |   |   C5 <= 7: 2 (2.0)
|   |   |   |   |   |   |   |   |   |   |   |   |   |   |   C5 > 7: 1 (4.0)
|   |   |   |   |   |   |   |   |   |   |   |   |   |   C4 > 7: 2 (3.0)
|   |   |   |   |   |   |   |   |   |   |   |   |   C5 > 8: 1 (8.0)
|   |   |   |   |   |   |   |   |   |   C4 > 8: 2 (9.0)
|   |   |   |   |   |   |   |   |   C5 > 9
|   |   |   |   |   |   |   |   |   |   C4 <= 9: 1 (132.0)
|   |   |   |   |   |   |   |   |   |   C4 > 9
|   |   |   |   |   |   |   |   |   |   |   C5 <= 10: 2 (3.0)
|   |   |   |   |   |   |   |   |   |   |   C5 > 10
|   |   |   |   |   |   |   |   |   |   |   |   C4 <= 10: 1 (24.0)
|   |   |   |   |   |   |   |   |   |   |   |   C4 > 10
|   |   |   |   |   |   |   |   |   |   |   |   |   C5 <= 12
|   |   |   |   |   |   |   |   |   |   |   |   |   |   S2 = H
|   |   |   |   |   |   |   |   |   |   |   |   |   |   |   C4 <= 11: 1 (3.0)
|   |   |   |   |   |   |   |   |   |   |   |   |   |   |   C4 > 11: 2 (1.0)
|   |   |   |   |   |   |   |   |   |   |   |   |   |   S2 = S: 2 (0.0)
|   |   |   |   |   |   |   |   |   |   |   |   |   |   S2 = D: 2 (1.0)
|   |   |   |   |   |   |   |   |   |   |   |   |   |   S2 = C: 2 (3.0)
|   |   |   |   |   |   |   |   |   |   |   |   |   C5 > 12: 1 (10.0)
|   |   |   |   |   |   |   C3 > 3
|   |   |   |   |   |   |   |   C5 <= 12
|   |   |   |   |   |   |   |   |   C4 <= 11
|   |   |   |   |   |   |   |   |   |   C3 <= 9
|   |   |   |   |   |   |   |   |   |   |   C5 <= 10
|   |   |   |   |   |   |   |   |   |   |   |   C4 <= 9
|   |   |   |   |   |   |   |   |   |   |   |   |   C3 <= 7
|   |   |   |   |   |   |   |   |   |   |   |   |   |   C5 <= 8
|   |   |   |   |   |   |   |   |   |   |   |   |   |   |   C3 <= 6
|   |   |   |   |   |   |   |   |   |   |   |   |   |   |   |   C4 <= 7
|   |   |   |   |   |   |   |   |   |   |   |   |   |   |   |   |   C5 <= 7
|   |   |   |   |   |   |   |   |   |   |   |   |   |   |   |   |   |   C4 <= 6
|   |   |   |   |   |   |   |   |   |   |   |   |   |   |   |   |   |   |   C5 <= 6
|   |   |   |   |   |   |   |   |   |   |   |   |   |   |   |   |   |   |   |   C3 <= 5
|   |   |   |   |   |   |   |   |   |   |   |   |   |   |   |   |   |   |   |   |   C1 <= 1: 1 (22.0/1.0)
|   |   |   |   |   |   |   |   |   |   |   |   |   |   |   |   |   |   |   |   |   C1 > 1
|   |   |   |   |   |   |   |   |   |   |   |   |   |   |   |   |   |   |   |   |   |   S2 = H: 2 (2.0)
|   |   |   |   |   |   |   |   |   |   |   |   |   |   |   |   |   |   |   |   |   |   S2 = S
|   |   |   |   |   |   |   |   |   |   |   |   |   |   |   |   |   |   |   |   |   |   |   S5 = H: 2 (0.0)
|   |   |   |   |   |   |   |   |   |   |   |   |   |   |   |   |   |   |   |   |   |   |   S5 = S: 2 (0.0)
|   |   |   |   |   |   |   |   |   |   |   |   |   |   |   |   |   |   |   |   |   |   |   S5 = D: 2 (2.0)
|   |   |   |   |   |   |   |   |   |   |   |   |   |   |   |   |   |   |   |   |   |   |   S5 = C: 1 (1.0)
|   |   |   |   |   |   |   |   |   |   |   |   |   |   |   |   |   |   |   |   |   |   S2 = D: 1 (3.0)
|   |   |   |   |   |   |   |   |   |   |   |   |   |   |   |   |   |   |   |   |   |   S2 = C
|   |   |   |   |   |   |   |   |   |   |   |   |   |   |   |   |   |   |   |   |   |   |   C2 <= 2: 2 (2.0)
|   |   |   |   |   |   |   |   |   |   |   |   |   |   |   |   |   |   |   |   |   |   |   C2 > 2: 1 (6.0)
|   |   |   |   |   |   |   |   |   |   |   |   |   |   |   |   |   |   |   |   C3 > 5: 3 (3.0)
|   |   |   |   |   |   |   |   |   |   |   |   |   |   |   |   |   |   |   C5 > 6
|   |   |   |   |   |   |   |   |   |   |   |   |   |   |   |   |   |   |   |   C3 <= 5
|   |   |   |   |   |   |   |   |   |   |   |   |   |   |   |   |   |   |   |   |   C2 <= 4
|   |   |   |   |   |   |   |   |   |   |   |   |   |   |   |   |   |   |   |   |   |   C1 <= 1
|   |   |   |   |   |   |   |   |   |   |   |   |   |   |   |   |   |   |   |   |   |   |   C2 <= 3: 0 (47.0)
|   |   |   |   |   |   |   |   |   |   |   |   |   |   |   |   |   |   |   |   |   |   |   C2 > 3
|   |   |   |   |   |   |   |   |   |   |   |   |   |   |   |   |   |   |   |   |   |   |   |   C3 <= 4: 1 (3.0)
|   |   |   |   |   |   |   |   |   |   |   |   |   |   |   |   |   |   |   |   |   |   |   |   C3 > 4: 0 (7.0)
|   |   |   |   |   |   |   |   |   |   |   |   |   |   |   |   |   |   |   |   |   |   C1 > 1
|   |   |   |   |   |   |   |   |   |   |   |   |   |   |   |   |   |   |   |   |   |   |   C2 <= 2: 1 (10.0)
|   |   |   |   |   |   |   |   |   |   |   |   |   |   |   |   |   |   |   |   |   |   |   C2 > 2
|   |   |   |   |   |   |   |   |   |   |   |   |   |   |   |   |   |   |   |   |   |   |   |   C2 <= 3: 0 (22.0)
|   |   |   |   |   |   |   |   |   |   |   |   |   |   |   |   |   |   |   |   |   |   |   |   C2 > 3
|   |   |   |   |   |   |   |   |   |   |   |   |   |   |   |   |   |   |   |   |   |   |   |   |   C3 <= 4: 1 (2.0)
|   |   |   |   |   |   |   |   |   |   |   |   |   |   |   |   |   |   |   |   |   |   |   |   |   C3 > 4: 0 (13.0)
|   |   |   |   |   |   |   |   |   |   |   |   |   |   |   |   |   |   |   |   |   C2 > 4: 1 (9.0)
|   |   |   |   |   |   |   |   |   |   |   |   |   |   |   |   |   |   |   |   C3 > 5
|   |   |   |   |   |   |   |   |   |   |   |   |   |   |   |   |   |   |   |   |   C2 <= 5: 1 (30.0/1.0)
|   |   |   |   |   |   |   |   |   |   |   |   |   |   |   |   |   |   |   |   |   C2 > 5: 3 (2.0)
|   |   |   |   |   |   |   |   |   |   |   |   |   |   |   |   |   |   C4 > 6
|   |   |   |   |   |   |   |   |   |   |   |   |   |   |   |   |   |   |   C1 <= 1
|   |   |   |   |   |   |   |   |   |   |   |   |   |   |   |   |   |   |   |   C2 <= 4: 1 (24.0)
|   |   |   |   |   |   |   |   |   |   |   |   |   |   |   |   |   |   |   |   C2 > 4
|   |   |   |   |   |   |   |   |   |   |   |   |   |   |   |   |   |   |   |   |   C3 <= 5: 2 (3.0)
|   |   |   |   |   |   |   |   |   |   |   |   |   |   |   |   |   |   |   |   |   C3 > 5: 1 (5.0)
|   |   |   |   |   |   |   |   |   |   |   |   |   |   |   |   |   |   |   C1 > 1
|   |   |   |   |   |   |   |   |   |   |   |   |   |   |   |   |   |   |   |   C2 <= 2: 2 (8.0)
|   |   |   |   |   |   |   |   |   |   |   |   |   |   |   |   |   |   |   |   C2 > 2
|   |   |   |   |   |   |   |   |   |   |   |   |   |   |   |   |   |   |   |   |   C2 <= 3: 1 (9.0)
|   |   |   |   |   |   |   |   |   |   |   |   |   |   |   |   |   |   |   |   |   C2 > 3
|   |   |   |   |   |   |   |   |   |   |   |   |   |   |   |   |   |   |   |   |   |   C3 <= 5: 2 (4.0)
|   |   |   |   |   |   |   |   |   |   |   |   |   |   |   |   |   |   |   |   |   |   C3 > 5
|   |   |   |   |   |   |   |   |   |   |   |   |   |   |   |   |   |   |   |   |   |   |   C2 <= 5: 1 (3.0)
|   |   |   |   |   |   |   |   |   |   |   |   |   |   |   |   |   |   |   |   |   |   |   C2 > 5: 2 (1.0)
|   |   |   |   |   |   |   |   |   |   |   |   |   |   |   |   |   C5 > 7
|   |   |   |   |   |   |   |   |   |   |   |   |   |   |   |   |   |   C2 <= 3
|   |   |   |   |   |   |   |   |   |   |   |   |   |   |   |   |   |   |   C3 <= 5
|   |   |   |   |   |   |   |   |   |   |   |   |   |   |   |   |   |   |   |   C1 <= 1: 0 (87.0/2.0)
|   |   |   |   |   |   |   |   |   |   |   |   |   |   |   |   |   |   |   |   C1 > 1
|   |   |   |   |   |   |   |   |   |   |   |   |   |   |   |   |   |   |   |   |   C2 <= 2: 1 (11.0)
|   |   |   |   |   |   |   |   |   |   |   |   |   |   |   |   |   |   |   |   |   C2 > 2: 0 (47.0)
|   |   |   |   |   |   |   |   |   |   |   |   |   |   |   |   |   |   |   C3 > 5
|   |   |   |   |   |   |   |   |   |   |   |   |   |   |   |   |   |   |   |   C4 <= 6: 1 (14.0)
|   |   |   |   |   |   |   |   |   |   |   |   |   |   |   |   |   |   |   |   C4 > 6
|   |   |   |   |   |   |   |   |   |   |   |   |   |   |   |   |   |   |   |   |   C2 <= 2
|   |   |   |   |   |   |   |   |   |   |   |   |   |   |   |   |   |   |   |   |   |   C1 <= 1: 0 (6.0)
|   |   |   |   |   |   |   |   |   |   |   |   |   |   |   |   |   |   |   |   |   |   C1 > 1: 1 (4.0)
|   |   |   |   |   |   |   |   |   |   |   |   |   |   |   |   |   |   |   |   |   C2 > 2: 0 (22.0)
|   |   |   |   |   |   |   |   |   |   |   |   |   |   |   |   |   |   C2 > 3
|   |   |   |   |   |   |   |   |   |   |   |   |   |   |   |   |   |   |   C3 <= 4: 1 (15.0)
|   |   |   |   |   |   |   |   |   |   |   |   |   |   |   |   |   |   |   C3 > 4
|   |   |   |   |   |   |   |   |   |   |   |   |   |   |   |   |   |   |   |   C4 <= 6
|   |   |   |   |   |   |   |   |   |   |   |   |   |   |   |   |   |   |   |   |   C3 <= 5
|   |   |   |   |   |   |   |   |   |   |   |   |   |   |   |   |   |   |   |   |   |   C2 <= 4: 0 (25.0)
|   |   |   |   |   |   |   |   |   |   |   |   |   |   |   |   |   |   |   |   |   |   C2 > 4: 1 (10.0)
|   |   |   |   |   |   |   |   |   |   |   |   |   |   |   |   |   |   |   |   |   C3 > 5: 1 (22.0)
|   |   |   |   |   |   |   |   |   |   |   |   |   |   |   |   |   |   |   |   C4 > 6
|   |   |   |   |   |   |   |   |   |   |   |   |   |   |   |   |   |   |   |   |   C2 <= 4: 0 (30.0/1.0)
|   |   |   |   |   |   |   |   |   |   |   |   |   |   |   |   |   |   |   |   |   C2 > 4
|   |   |   |   |   |   |   |   |   |   |   |   |   |   |   |   |   |   |   |   |   |   C3 <= 5: 1 (8.0)
|   |   |   |   |   |   |   |   |   |   |   |   |   |   |   |   |   |   |   |   |   |   C3 > 5
|   |   |   |   |   |   |   |   |   |   |   |   |   |   |   |   |   |   |   |   |   |   |   C2 <= 5: 0 (21.0)
|   |   |   |   |   |   |   |   |   |   |   |   |   |   |   |   |   |   |   |   |   |   |   C2 > 5: 1 (3.0)
|   |   |   |   |   |   |   |   |   |   |   |   |   |   |   |   C4 > 7
|   |   |   |   |   |   |   |   |   |   |   |   |   |   |   |   |   C1 <= 1
|   |   |   |   |   |   |   |   |   |   |   |   |   |   |   |   |   |   C2 <= 4: 1 (25.0)
|   |   |   |   |   |   |   |   |   |   |   |   |   |   |   |   |   |   C2 > 4: 2 (1.0)
|   |   |   |   |   |   |   |   |   |   |   |   |   |   |   |   |   C1 > 1
|   |   |   |   |   |   |   |   |   |   |   |   |   |   |   |   |   |   C2 <= 2: 2 (4.0)
|   |   |   |   |   |   |   |   |   |   |   |   |   |   |   |   |   |   C2 > 2
|   |   |   |   |   |   |   |   |   |   |   |   |   |   |   |   |   |   |   C2 <= 3: 1 (9.0)
|   |   |   |   |   |   |   |   |   |   |   |   |   |   |   |   |   |   |   C2 > 3
|   |   |   |   |   |   |   |   |   |   |   |   |   |   |   |   |   |   |   |   C3 <= 4: 2 (3.0)
|   |   |   |   |   |   |   |   |   |   |   |   |   |   |   |   |   |   |   |   C3 > 4
|   |   |   |   |   |   |   |   |   |   |   |   |   |   |   |   |   |   |   |   |   C2 <= 5
|   |   |   |   |   |   |   |   |   |   |   |   |   |   |   |   |   |   |   |   |   |   C3 <= 5
|   |   |   |   |   |   |   |   |   |   |   |   |   |   |   |   |   |   |   |   |   |   |   C2 <= 4: 1 (3.0)
|   |   |   |   |   |   |   |   |   |   |   |   |   |   |   |   |   |   |   |   |   |   |   C2 > 4: 2 (2.0)
|   |   |   |   |   |   |   |   |   |   |   |   |   |   |   |   |   |   |   |   |   |   C3 > 5: 1 (7.0)
|   |   |   |   |   |   |   |   |   |   |   |   |   |   |   |   |   |   |   |   |   C2 > 5: 2 (2.0)
|   |   |   |   |   |   |   |   |   |   |   |   |   |   |   C3 > 6
|   |   |   |   |   |   |   |   |   |   |   |   |   |   |   |   C5 <= 7: 3 (7.0/1.0)
|   |   |   |   |   |   |   |   |   |   |   |   |   |   |   |   C5 > 7: 1 (76.0/1.0)
|   |   |   |   |   |   |   |   |   |   |   |   |   |   C5 > 8
|   |   |   |   |   |   |   |   |   |   |   |   |   |   |   C2 <= 6
|   |   |   |   |   |   |   |   |   |   |   |   |   |   |   |   C2 <= 4
|   |   |   |   |   |   |   |   |   |   |   |   |   |   |   |   |   C2 <= 2
|   |   |   |   |   |   |   |   |   |   |   |   |   |   |   |   |   |   C1 <= 1
|   |   |   |   |   |   |   |   |   |   |   |   |   |   |   |   |   |   |   C3 <= 6
|   |   |   |   |   |   |   |   |   |   |   |   |   |   |   |   |   |   |   |   C4 <= 8
|   |   |   |   |   |   |   |   |   |   |   |   |   |   |   |   |   |   |   |   |   C4 <= 6
|   |   |   |   |   |   |   |   |   |   |   |   |   |   |   |   |   |   |   |   |   |   C3 <= 5: 0 (31.0)
|   |   |   |   |   |   |   |   |   |   |   |   |   |   |   |   |   |   |   |   |   |   C3 > 5: 1 (6.0)
|   |   |   |   |   |   |   |   |   |   |   |   |   |   |   |   |   |   |   |   |   C4 > 6: 0 (124.0)
|   |   |   |   |   |   |   |   |   |   |   |   |   |   |   |   |   |   |   |   C4 > 8
|   |   |   |   |   |   |   |   |   |   |   |   |   |   |   |   |   |   |   |   |   C5 <= 9: 1 (9.0)
|   |   |   |   |   |   |   |   |   |   |   |   |   |   |   |   |   |   |   |   |   C5 > 9: 0 (29.0)
|   |   |   |   |   |   |   |   |   |   |   |   |   |   |   |   |   |   |   C3 > 6
|   |   |   |   |   |   |   |   |   |   |   |   |   |   |   |   |   |   |   |   C4 <= 7: 1 (8.0)
|   |   |   |   |   |   |   |   |   |   |   |   |   |   |   |   |   |   |   |   C4 > 7
|   |   |   |   |   |   |   |   |   |   |   |   |   |   |   |   |   |   |   |   |   C5 <= 9
|   |   |   |   |   |   |   |   |   |   |   |   |   |   |   |   |   |   |   |   |   |   C4 <= 8: 0 (10.0)
|   |   |   |   |   |   |   |   |   |   |   |   |   |   |   |   |   |   |   |   |   |   C4 > 8: 1 (3.0)
|   |   |   |   |   |   |   |   |   |   |   |   |   |   |   |   |   |   |   |   |   C5 > 9: 0 (21.0)
|   |   |   |   |   |   |   |   |   |   |   |   |   |   |   |   |   |   C1 > 1
|   |   |   |   |   |   |   |   |   |   |   |   |   |   |   |   |   |   |   C5 <= 9
|   |   |   |   |   |   |   |   |   |   |   |   |   |   |   |   |   |   |   |   C4 <= 8: 1 (38.0/2.0)
|   |   |   |   |   |   |   |   |   |   |   |   |   |   |   |   |   |   |   |   C4 > 8: 2 (3.0)
|   |   |   |   |   |   |   |   |   |   |   |   |   |   |   |   |   |   |   C5 > 9: 1 (48.0)
|   |   |   |   |   |   |   |   |   |   |   |   |   |   |   |   |   C2 > 2
|   |   |   |   |   |   |   |   |   |   |   |   |   |   |   |   |   |   C2 <= 3
|   |   |   |   |   |   |   |   |   |   |   |   |   |   |   |   |   |   |   C3 <= 5
|   |   |   |   |   |   |   |   |   |   |   |   |   |   |   |   |   |   |   |   C4 <= 8: 0 (250.0)
|   |   |   |   |   |   |   |   |   |   |   |   |   |   |   |   |   |   |   |   C4 > 8
|   |   |   |   |   |   |   |   |   |   |   |   |   |   |   |   |   |   |   |   |   C5 <= 9: 1 (6.0)
|   |   |   |   |   |   |   |   |   |   |   |   |   |   |   |   |   |   |   |   |   C5 > 9: 0 (35.0)
|   |   |   |   |   |   |   |   |   |   |   |   |   |   |   |   |   |   |   C3 > 5
|   |   |   |   |   |   |   |   |   |   |   |   |   |   |   |   |   |   |   |   C4 <= 6: 1 (14.0)
|   |   |   |   |   |   |   |   |   |   |   |   |   |   |   |   |   |   |   |   C4 > 6
|   |   |   |   |   |   |   |   |   |   |   |   |   |   |   |   |   |   |   |   |   C3 <= 6
|   |   |   |   |   |   |   |   |   |   |   |   |   |   |   |   |   |   |   |   |   |   C4 <= 8: 0 (85.0)
|   |   |   |   |   |   |   |   |   |   |   |   |   |   |   |   |   |   |   |   |   |   C4 > 8
|   |   |   |   |   |   |   |   |   |   |   |   |   |   |   |   |   |   |   |   |   |   |   C5 <= 9: 1 (9.0)
|   |   |   |   |   |   |   |   |   |   |   |   |   |   |   |   |   |   |   |   |   |   |   C5 > 9: 0 (24.0)
|   |   |   |   |   |   |   |   |   |   |   |   |   |   |   |   |   |   |   |   |   C3 > 6
|   |   |   |   |   |   |   |   |   |   |   |   |   |   |   |   |   |   |   |   |   |   C4 <= 7: 1 (17.0)
|   |   |   |   |   |   |   |   |   |   |   |   |   |   |   |   |   |   |   |   |   |   C4 > 7
|   |   |   |   |   |   |   |   |   |   |   |   |   |   |   |   |   |   |   |   |   |   |   C4 <= 8: 0 (43.0)
|   |   |   |   |   |   |   |   |   |   |   |   |   |   |   |   |   |   |   |   |   |   |   C4 > 8
|   |   |   |   |   |   |   |   |   |   |   |   |   |   |   |   |   |   |   |   |   |   |   |   C5 <= 9: 1 (6.0)
|   |   |   |   |   |   |   |   |   |   |   |   |   |   |   |   |   |   |   |   |   |   |   |   C5 > 9: 0 (23.0)
|   |   |   |   |   |   |   |   |   |   |   |   |   |   |   |   |   |   C2 > 3
|   |   |   |   |   |   |   |   |   |   |   |   |   |   |   |   |   |   |   C3 <= 4
|   |   |   |   |   |   |   |   |   |   |   |   |   |   |   |   |   |   |   |   C4 <= 8: 1 (34.0)
|   |   |   |   |   |   |   |   |   |   |   |   |   |   |   |   |   |   |   |   C4 > 8
|   |   |   |   |   |   |   |   |   |   |   |   |   |   |   |   |   |   |   |   |   C5 <= 9: 2 (2.0)
|   |   |   |   |   |   |   |   |   |   |   |   |   |   |   |   |   |   |   |   |   C5 > 9: 1 (7.0)
|   |   |   |   |   |   |   |   |   |   |   |   |   |   |   |   |   |   |   C3 > 4
|   |   |   |   |   |   |   |   |   |   |   |   |   |   |   |   |   |   |   |   C5 <= 9
|   |   |   |   |   |   |   |   |   |   |   |   |   |   |   |   |   |   |   |   |   C4 <= 8
|   |   |   |   |   |   |   |   |   |   |   |   |   |   |   |   |   |   |   |   |   |   C4 <= 7
|   |   |   |   |   |   |   |   |   |   |   |   |   |   |   |   |   |   |   |   |   |   |   C3 <= 6
|   |   |   |   |   |   |   |   |   |   |   |   |   |   |   |   |   |   |   |   |   |   |   |   C4 <= 6
|   |   |   |   |   |   |   |   |   |   |   |   |   |   |   |   |   |   |   |   |   |   |   |   |   C3 <= 5: 0 (18.0)
|   |   |   |   |   |   |   |   |   |   |   |   |   |   |   |   |   |   |   |   |   |   |   |   |   C3 > 5: 1 (6.0)
|   |   |   |   |   |   |   |   |   |   |   |   |   |   |   |   |   |   |   |   |   |   |   |   C4 > 6: 0 (38.0)
|   |   |   |   |   |   |   |   |   |   |   |   |   |   |   |   |   |   |   |   |   |   |   C3 > 6: 1 (9.0)
|   |   |   |   |   |   |   |   |   |   |   |   |   |   |   |   |   |   |   |   |   |   C4 > 7: 0 (61.0)
|   |   |   |   |   |   |   |   |   |   |   |   |   |   |   |   |   |   |   |   |   C4 > 8: 1 (21.0)
|   |   |   |   |   |   |   |   |   |   |   |   |   |   |   |   |   |   |   |   C5 > 9
|   |   |   |   |   |   |   |   |   |   |   |   |   |   |   |   |   |   |   |   |   C4 <= 7
|   |   |   |   |   |   |   |   |   |   |   |   |   |   |   |   |   |   |   |   |   |   C3 <= 6
|   |   |   |   |   |   |   |   |   |   |   |   |   |   |   |   |   |   |   |   |   |   |   C4 <= 6
|   |   |   |   |   |   |   |   |   |   |   |   |   |   |   |   |   |   |   |   |   |   |   |   C3 <= 5: 0 (16.0)
|   |   |   |   |   |   |   |   |   |   |   |   |   |   |   |   |   |   |   |   |   |   |   |   C3 > 5: 1 (5.0)
|   |   |   |   |   |   |   |   |   |   |   |   |   |   |   |   |   |   |   |   |   |   |   C4 > 6: 0 (49.0)
|   |   |   |   |   |   |   |   |   |   |   |   |   |   |   |   |   |   |   |   |   |   C3 > 6: 1 (9.0)
|   |   |   |   |   |   |   |   |   |   |   |   |   |   |   |   |   |   |   |   |   C4 > 7: 0 (114.0/2.0)
|   |   |   |   |   |   |   |   |   |   |   |   |   |   |   |   C2 > 4
|   |   |   |   |   |   |   |   |   |   |   |   |   |   |   |   |   C3 <= 5: 1 (61.0)
|   |   |   |   |   |   |   |   |   |   |   |   |   |   |   |   |   C3 > 5
|   |   |   |   |   |   |   |   |   |   |   |   |   |   |   |   |   |   C4 <= 7
|   |   |   |   |   |   |   |   |   |   |   |   |   |   |   |   |   |   |   C2 <= 5
|   |   |   |   |   |   |   |   |   |   |   |   |   |   |   |   |   |   |   |   C3 <= 6
|   |   |   |   |   |   |   |   |   |   |   |   |   |   |   |   |   |   |   |   |   C4 <= 6: 1 (12.0)
|   |   |   |   |   |   |   |   |   |   |   |   |   |   |   |   |   |   |   |   |   C4 > 6: 0 (35.0/1.0)
|   |   |   |   |   |   |   |   |   |   |   |   |   |   |   |   |   |   |   |   C3 > 6: 1 (16.0)
|   |   |   |   |   |   |   |   |   |   |   |   |   |   |   |   |   |   |   C2 > 5: 1 (28.0)
|   |   |   |   |   |   |   |   |   |   |   |   |   |   |   |   |   |   C4 > 7
|   |   |   |   |   |   |   |   |   |   |   |   |   |   |   |   |   |   |   C5 <= 9
|   |   |   |   |   |   |   |   |   |   |   |   |   |   |   |   |   |   |   |   C4 <= 8
|   |   |   |   |   |   |   |   |   |   |   |   |   |   |   |   |   |   |   |   |   C2 <= 5: 0 (45.0)
|   |   |   |   |   |   |   |   |   |   |   |   |   |   |   |   |   |   |   |   |   C2 > 5
|   |   |   |   |   |   |   |   |   |   |   |   |   |   |   |   |   |   |   |   |   |   C3 <= 6: 1 (6.0)
|   |   |   |   |   |   |   |   |   |   |   |   |   |   |   |   |   |   |   |   |   |   C3 > 6: 0 (20.0)
|   |   |   |   |   |   |   |   |   |   |   |   |   |   |   |   |   |   |   |   C4 > 8
|   |   |   |   |   |   |   |   |   |   |   |   |   |   |   |   |   |   |   |   |   C2 <= 5: 1 (14.0)
|   |   |   |   |   |   |   |   |   |   |   |   |   |   |   |   |   |   |   |   |   C2 > 5
|   |   |   |   |   |   |   |   |   |   |   |   |   |   |   |   |   |   |   |   |   |   C3 <= 6: 2 (2.0)
|   |   |   |   |   |   |   |   |   |   |   |   |   |   |   |   |   |   |   |   |   |   C3 > 6: 1 (6.0)
|   |   |   |   |   |   |   |   |   |   |   |   |   |   |   |   |   |   |   C5 > 9
|   |   |   |   |   |   |   |   |   |   |   |   |   |   |   |   |   |   |   |   C2 <= 5: 0 (87.0)
|   |   |   |   |   |   |   |   |   |   |   |   |   |   |   |   |   |   |   |   C2 > 5
|   |   |   |   |   |   |   |   |   |   |   |   |   |   |   |   |   |   |   |   |   C3 <= 6: 1 (10.0)
|   |   |   |   |   |   |   |   |   |   |   |   |   |   |   |   |   |   |   |   |   C3 > 6: 0 (39.0)
|   |   |   |   |   |   |   |   |   |   |   |   |   |   |   C2 > 6
|   |   |   |   |   |   |   |   |   |   |   |   |   |   |   |   C4 <= 7: 3 (3.0)
|   |   |   |   |   |   |   |   |   |   |   |   |   |   |   |   C4 > 7: 1 (26.0)
|   |   |   |   |   |   |   |   |   |   |   |   |   C3 > 7
|   |   |   |   |   |   |   |   |   |   |   |   |   |   C5 <= 9
|   |   |   |   |   |   |   |   |   |   |   |   |   |   |   C3 <= 8
|   |   |   |   |   |   |   |   |   |   |   |   |   |   |   |   C5 <= 8: 3 (7.0/1.0)
|   |   |   |   |   |   |   |   |   |   |   |   |   |   |   |   C5 > 8
|   |   |   |   |   |   |   |   |   |   |   |   |   |   |   |   |   C2 <= 7
|   |   |   |   |   |   |   |   |   |   |   |   |   |   |   |   |   |   C2 <= 2
|   |   |   |   |   |   |   |   |   |   |   |   |   |   |   |   |   |   |   C1 <= 1: 1 (7.0)
|   |   |   |   |   |   |   |   |   |   |   |   |   |   |   |   |   |   |   C1 > 1: 2 (5.0)
|   |   |   |   |   |   |   |   |   |   |   |   |   |   |   |   |   |   C2 > 2: 1 (61.0)
|   |   |   |   |   |   |   |   |   |   |   |   |   |   |   |   |   C2 > 7
|   |   |   |   |   |   |   |   |   |   |   |   |   |   |   |   |   |   C4 <= 8: 3 (2.0)
|   |   |   |   |   |   |   |   |   |   |   |   |   |   |   |   |   |   C4 > 8: 2 (2.0)
|   |   |   |   |   |   |   |   |   |   |   |   |   |   |   C3 > 8: 3 (8.0)
|   |   |   |   |   |   |   |   |   |   |   |   |   |   C5 > 9
|   |   |   |   |   |   |   |   |   |   |   |   |   |   |   C3 <= 8
|   |   |   |   |   |   |   |   |   |   |   |   |   |   |   |   C4 <= 8
|   |   |   |   |   |   |   |   |   |   |   |   |   |   |   |   |   C2 <= 7
|   |   |   |   |   |   |   |   |   |   |   |   |   |   |   |   |   |   C2 <= 2
|   |   |   |   |   |   |   |   |   |   |   |   |   |   |   |   |   |   |   C1 <= 1: 1 (2.0)
|   |   |   |   |   |   |   |   |   |   |   |   |   |   |   |   |   |   |   C1 > 1: 2 (2.0)
|   |   |   |   |   |   |   |   |   |   |   |   |   |   |   |   |   |   C2 > 2: 1 (28.0)
|   |   |   |   |   |   |   |   |   |   |   |   |   |   |   |   |   C2 > 7: 3 (3.0)
|   |   |   |   |   |   |   |   |   |   |   |   |   |   |   |   C4 > 8
|   |   |   |   |   |   |   |   |   |   |   |   |   |   |   |   |   C2 <= 7
|   |   |   |   |   |   |   |   |   |   |   |   |   |   |   |   |   |   C2 <= 2
|   |   |   |   |   |   |   |   |   |   |   |   |   |   |   |   |   |   |   C1 <= 1: 0 (12.0)
|   |   |   |   |   |   |   |   |   |   |   |   |   |   |   |   |   |   |   C1 > 1: 1 (6.0)
|   |   |   |   |   |   |   |   |   |   |   |   |   |   |   |   |   |   C2 > 2: 0 (85.0)
|   |   |   |   |   |   |   |   |   |   |   |   |   |   |   |   |   C2 > 7: 1 (6.0)
|   |   |   |   |   |   |   |   |   |   |   |   |   |   |   C3 > 8
|   |   |   |   |   |   |   |   |   |   |   |   |   |   |   |   C2 <= 2
|   |   |   |   |   |   |   |   |   |   |   |   |   |   |   |   |   C1 <= 1: 1 (4.0)
|   |   |   |   |   |   |   |   |   |   |   |   |   |   |   |   |   C1 > 1: 2 (2.0)
|   |   |   |   |   |   |   |   |   |   |   |   |   |   |   |   C2 > 2: 1 (43.0)
|   |   |   |   |   |   |   |   |   |   |   |   C4 > 9
|   |   |   |   |   |   |   |   |   |   |   |   |   C2 <= 2
|   |   |   |   |   |   |   |   |   |   |   |   |   |   C1 <= 1: 1 (20.0)
|   |   |   |   |   |   |   |   |   |   |   |   |   |   C1 > 1: 2 (11.0)
|   |   |   |   |   |   |   |   |   |   |   |   |   C2 > 2
|   |   |   |   |   |   |   |   |   |   |   |   |   |   C3 <= 7
|   |   |   |   |   |   |   |   |   |   |   |   |   |   |   C2 <= 6
|   |   |   |   |   |   |   |   |   |   |   |   |   |   |   |   C2 <= 3: 1 (29.0)
|   |   |   |   |   |   |   |   |   |   |   |   |   |   |   |   C2 > 3
|   |   |   |   |   |   |   |   |   |   |   |   |   |   |   |   |   C3 <= 4: 2 (3.0)
|   |   |   |   |   |   |   |   |   |   |   |   |   |   |   |   |   C3 > 4
|   |   |   |   |   |   |   |   |   |   |   |   |   |   |   |   |   |   C2 <= 4: 1 (22.0)
|   |   |   |   |   |   |   |   |   |   |   |   |   |   |   |   |   |   C2 > 4
|   |   |   |   |   |   |   |   |   |   |   |   |   |   |   |   |   |   |   C3 <= 6
|   |   |   |   |   |   |   |   |   |   |   |   |   |   |   |   |   |   |   |   C2 <= 5
|   |   |   |   |   |   |   |   |   |   |   |   |   |   |   |   |   |   |   |   |   C3 <= 5: 2 (2.0)
|   |   |   |   |   |   |   |   |   |   |   |   |   |   |   |   |   |   |   |   |   C3 > 5: 1 (8.0)
|   |   |   |   |   |   |   |   |   |   |   |   |   |   |   |   |   |   |   |   C2 > 5: 2 (3.0)
|   |   |   |   |   |   |   |   |   |   |   |   |   |   |   |   |   |   |   C3 > 6: 1 (13.0)
|   |   |   |   |   |   |   |   |   |   |   |   |   |   |   C2 > 6: 2 (5.0)
|   |   |   |   |   |   |   |   |   |   |   |   |   |   C3 > 7: 1 (96.0)
|   |   |   |   |   |   |   |   |   |   |   C5 > 10
|   |   |   |   |   |   |   |   |   |   |   |   C2 <= 5
|   |   |   |   |   |   |   |   |   |   |   |   |   C1 <= 1
|   |   |   |   |   |   |   |   |   |   |   |   |   |   C4 <= 10
|   |   |   |   |   |   |   |   |   |   |   |   |   |   |   C4 <= 8
|   |   |   |   |   |   |   |   |   |   |   |   |   |   |   |   C3 <= 7
|   |   |   |   |   |   |   |   |   |   |   |   |   |   |   |   |   C2 <= 4
|   |   |   |   |   |   |   |   |   |   |   |   |   |   |   |   |   |   C4 <= 7
|   |   |   |   |   |   |   |   |   |   |   |   |   |   |   |   |   |   |   C3 <= 6
|   |   |   |   |   |   |   |   |   |   |   |   |   |   |   |   |   |   |   |   C3 <= 5
|   |   |   |   |   |   |   |   |   |   |   |   |   |   |   |   |   |   |   |   |   C2 <= 3: 0 (151.0/1.0)
|   |   |   |   |   |   |   |   |   |   |   |   |   |   |   |   |   |   |   |   |   C2 > 3
|   |   |   |   |   |   |   |   |   |   |   |   |   |   |   |   |   |   |   |   |   |   C3 <= 4: 1 (10.0)
|   |   |   |   |   |   |   |   |   |   |   |   |   |   |   |   |   |   |   |   |   |   C3 > 4: 0 (33.0)
|   |   |   |   |   |   |   |   |   |   |   |   |   |   |   |   |   |   |   |   C3 > 5
|   |   |   |   |   |   |   |   |   |   |   |   |   |   |   |   |   |   |   |   |   C4 <= 6: 1 (22.0)
|   |   |   |   |   |   |   |   |   |   |   |   |   |   |   |   |   |   |   |   |   C4 > 6: 0 (49.0)
|   |   |   |   |   |   |   |   |   |   |   |   |   |   |   |   |   |   |   C3 > 6: 1 (18.0)
|   |   |   |   |   |   |   |   |   |   |   |   |   |   |   |   |   |   C4 > 7: 0 (211.0/3.0)
|   |   |   |   |   |   |   |   |   |   |   |   |   |   |   |   |   C2 > 4
|   |   |   |   |   |   |   |   |   |   |   |   |   |   |   |   |   |   C3 <= 5: 1 (29.0)
|   |   |   |   |   |   |   |   |   |   |   |   |   |   |   |   |   |   C3 > 5
|   |   |   |   |   |   |   |   |   |   |   |   |   |   |   |   |   |   |   C4 <= 6: 1 (5.0)
|   |   |   |   |   |   |   |   |   |   |   |   |   |   |   |   |   |   |   C4 > 6
|   |   |   |   |   |   |   |   |   |   |   |   |   |   |   |   |   |   |   |   C3 <= 6: 0 (40.0)
|   |   |   |   |   |   |   |   |   |   |   |   |   |   |   |   |   |   |   |   C3 > 6
|   |   |   |   |   |   |   |   |   |   |   |   |   |   |   |   |   |   |   |   |   C4 <= 7: 1 (4.0)
|   |   |   |   |   |   |   |   |   |   |   |   |   |   |   |   |   |   |   |   |   C4 > 7: 0 (16.0)
|   |   |   |   |   |   |   |   |   |   |   |   |   |   |   |   C3 > 7: 1 (39.0)
|   |   |   |   |   |   |   |   |   |   |   |   |   |   |   C4 > 8
|   |   |   |   |   |   |   |   |   |   |   |   |   |   |   |   C3 <= 8
|   |   |   |   |   |   |   |   |   |   |   |   |   |   |   |   |   C3 <= 5
|   |   |   |   |   |   |   |   |   |   |   |   |   |   |   |   |   |   C2 <= 3: 0 (172.0/1.0)
|   |   |   |   |   |   |   |   |   |   |   |   |   |   |   |   |   |   C2 > 3
|   |   |   |   |   |   |   |   |   |   |   |   |   |   |   |   |   |   |   C2 <= 4
|   |   |   |   |   |   |   |   |   |   |   |   |   |   |   |   |   |   |   |   C3 <= 4: 1 (12.0)
|   |   |   |   |   |   |   |   |   |   |   |   |   |   |   |   |   |   |   |   C3 > 4: 0 (35.0)
|   |   |   |   |   |   |   |   |   |   |   |   |   |   |   |   |   |   |   C2 > 4: 1 (17.0)
|   |   |   |   |   |   |   |   |   |   |   |   |   |   |   |   |   C3 > 5: 0 (503.0/3.0)
|   |   |   |   |   |   |   |   |   |   |   |   |   |   |   |   C3 > 8
|   |   |   |   |   |   |   |   |   |   |   |   |   |   |   |   |   C4 <= 9: 1 (29.0)
|   |   |   |   |   |   |   |   |   |   |   |   |   |   |   |   |   C4 > 9: 0 (91.0/1.0)
|   |   |   |   |   |   |   |   |   |   |   |   |   |   C4 > 10
|   |   |   |   |   |   |   |   |   |   |   |   |   |   |   C5 <= 11
|   |   |   |   |   |   |   |   |   |   |   |   |   |   |   |   C3 <= 4
|   |   |   |   |   |   |   |   |   |   |   |   |   |   |   |   |   C2 <= 3: 1 (4.0)
|   |   |   |   |   |   |   |   |   |   |   |   |   |   |   |   |   C2 > 3: 2 (2.0)
|   |   |   |   |   |   |   |   |   |   |   |   |   |   |   |   C3 > 4: 1 (64.0)
|   |   |   |   |   |   |   |   |   |   |   |   |   |   |   C5 > 11
|   |   |   |   |   |   |   |   |   |   |   |   |   |   |   |   C3 <= 5
|   |   |   |   |   |   |   |   |   |   |   |   |   |   |   |   |   C2 <= 3: 0 (47.0)
|   |   |   |   |   |   |   |   |   |   |   |   |   |   |   |   |   C2 > 3
|   |   |   |   |   |   |   |   |   |   |   |   |   |   |   |   |   |   C3 <= 4: 1 (3.0)
|   |   |   |   |   |   |   |   |   |   |   |   |   |   |   |   |   |   C3 > 4
|   |   |   |   |   |   |   |   |   |   |   |   |   |   |   |   |   |   |   C2 <= 4: 0 (12.0)
|   |   |   |   |   |   |   |   |   |   |   |   |   |   |   |   |   |   |   C2 > 4: 1 (1.0)
|   |   |   |   |   |   |   |   |   |   |   |   |   |   |   |   C3 > 5: 0 (161.0/2.0)
|   |   |   |   |   |   |   |   |   |   |   |   |   C1 > 1
|   |   |   |   |   |   |   |   |   |   |   |   |   |   C2 <= 2
|   |   |   |   |   |   |   |   |   |   |   |   |   |   |   C3 <= 5: 1 (84.0/1.0)
|   |   |   |   |   |   |   |   |   |   |   |   |   |   |   C3 > 5
|   |   |   |   |   |   |   |   |   |   |   |   |   |   |   |   C4 <= 6: 2 (2.0)
|   |   |   |   |   |   |   |   |   |   |   |   |   |   |   |   C4 > 6
|   |   |   |   |   |   |   |   |   |   |   |   |   |   |   |   |   C3 <= 8
|   |   |   |   |   |   |   |   |   |   |   |   |   |   |   |   |   |   C5 <= 11
|   |   |   |   |   |   |   |   |   |   |   |   |   |   |   |   |   |   |   C4 <= 10
|   |   |   |   |   |   |   |   |   |   |   |   |   |   |   |   |   |   |   |   C4 <= 7
|   |   |   |   |   |   |   |   |   |   |   |   |   |   |   |   |   |   |   |   |   C3 <= 6: 1 (5.0)
|   |   |   |   |   |   |   |   |   |   |   |   |   |   |   |   |   |   |   |   |   C3 > 6: 2 (2.0)
|   |   |   |   |   |   |   |   |   |   |   |   |   |   |   |   |   |   |   |   C4 > 7: 1 (26.0)
|   |   |   |   |   |   |   |   |   |   |   |   |   |   |   |   |   |   |   C4 > 10: 2 (4.0)
|   |   |   |   |   |   |   |   |   |   |   |   |   |   |   |   |   |   C5 > 11: 1 (56.0/1.0)
|   |   |   |   |   |   |   |   |   |   |   |   |   |   |   |   |   C3 > 8
|   |   |   |   |   |   |   |   |   |   |   |   |   |   |   |   |   |   C4 <= 9: 2 (5.0)
|   |   |   |   |   |   |   |   |   |   |   |   |   |   |   |   |   |   C4 > 9: 1 (10.0)
|   |   |   |   |   |   |   |   |   |   |   |   |   |   C2 > 2
|   |   |   |   |   |   |   |   |   |   |   |   |   |   |   C4 <= 10
|   |   |   |   |   |   |   |   |   |   |   |   |   |   |   |   C4 <= 9
|   |   |   |   |   |   |   |   |   |   |   |   |   |   |   |   |   C3 <= 8
|   |   |   |   |   |   |   |   |   |   |   |   |   |   |   |   |   |   C4 <= 8
|   |   |   |   |   |   |   |   |   |   |   |   |   |   |   |   |   |   |   C3 <= 7
|   |   |   |   |   |   |   |   |   |   |   |   |   |   |   |   |   |   |   |   C2 <= 3
|   |   |   |   |   |   |   |   |   |   |   |   |   |   |   |   |   |   |   |   |   C3 <= 6
|   |   |   |   |   |   |   |   |   |   |   |   |   |   |   |   |   |   |   |   |   |   C3 <= 5: 0 (128.0)
|   |   |   |   |   |   |   |   |   |   |   |   |   |   |   |   |   |   |   |   |   |   C3 > 5
|   |   |   |   |   |   |   |   |   |   |   |   |   |   |   |   |   |   |   |   |   |   |   C4 <= 6: 1 (3.0)
|   |   |   |   |   |   |   |   |   |   |   |   |   |   |   |   |   |   |   |   |   |   |   C4 > 6: 0 (41.0)
|   |   |   |   |   |   |   |   |   |   |   |   |   |   |   |   |   |   |   |   |   C3 > 6
|   |   |   |   |   |   |   |   |   |   |   |   |   |   |   |   |   |   |   |   |   |   C4 <= 7: 1 (12.0)
|   |   |   |   |   |   |   |   |   |   |   |   |   |   |   |   |   |   |   |   |   |   C4 > 7: 0 (22.0/1.0)
|   |   |   |   |   |   |   |   |   |   |   |   |   |   |   |   |   |   |   |   C2 > 3
|   |   |   |   |   |   |   |   |   |   |   |   |   |   |   |   |   |   |   |   |   C3 <= 4: 1 (29.0)
|   |   |   |   |   |   |   |   |   |   |   |   |   |   |   |   |   |   |   |   |   C3 > 4
|   |   |   |   |   |   |   |   |   |   |   |   |   |   |   |   |   |   |   |   |   |   C4 <= 7
|   |   |   |   |   |   |   |   |   |   |   |   |   |   |   |   |   |   |   |   |   |   |   C3 <= 6
|   |   |   |   |   |   |   |   |   |   |   |   |   |   |   |   |   |   |   |   |   |   |   |   C2 <= 4
|   |   |   |   |   |   |   |   |   |   |   |   |   |   |   |   |   |   |   |   |   |   |   |   |   C3 <= 5: 0 (38.0)
|   |   |   |   |   |   |   |   |   |   |   |   |   |   |   |   |   |   |   |   |   |   |   |   |   C3 > 5
|   |   |   |   |   |   |   |   |   |   |   |   |   |   |   |   |   |   |   |   |   |   |   |   |   |   C4 <= 6: 1 (7.0)
|   |   |   |   |   |   |   |   |   |   |   |   |   |   |   |   |   |   |   |   |   |   |   |   |   |   C4 > 6: 0 (22.0/1.0)
|   |   |   |   |   |   |   |   |   |   |   |   |   |   |   |   |   |   |   |   |   |   |   |   C2 > 4
|   |   |   |   |   |   |   |   |   |   |   |   |   |   |   |   |   |   |   |   |   |   |   |   |   C3 <= 5: 1 (17.0)
|   |   |   |   |   |   |   |   |   |   |   |   |   |   |   |   |   |   |   |   |   |   |   |   |   C3 > 5
|   |   |   |   |   |   |   |   |   |   |   |   |   |   |   |   |   |   |   |   |   |   |   |   |   |   C4 <= 6: 1 (5.0)
|   |   |   |   |   |   |   |   |   |   |   |   |   |   |   |   |   |   |   |   |   |   |   |   |   |   C4 > 6: 0 (16.0)
|   |   |   |   |   |   |   |   |   |   |   |   |   |   |   |   |   |   |   |   |   |   |   C3 > 6: 1 (16.0)
|   |   |   |   |   |   |   |   |   |   |   |   |   |   |   |   |   |   |   |   |   |   C4 > 7
|   |   |   |   |   |   |   |   |   |   |   |   |   |   |   |   |   |   |   |   |   |   |   C3 <= 5
|   |   |   |   |   |   |   |   |   |   |   |   |   |   |   |   |   |   |   |   |   |   |   |   C2 <= 4: 0 (16.0)
|   |   |   |   |   |   |   |   |   |   |   |   |   |   |   |   |   |   |   |   |   |   |   |   C2 > 4: 1 (6.0)
|   |   |   |   |   |   |   |   |   |   |   |   |   |   |   |   |   |   |   |   |   |   |   C3 > 5: 0 (81.0)
|   |   |   |   |   |   |   |   |   |   |   |   |   |   |   |   |   |   |   C3 > 7: 1 (27.0)
|   |   |   |   |   |   |   |   |   |   |   |   |   |   |   |   |   |   C4 > 8
|   |   |   |   |   |   |   |   |   |   |   |   |   |   |   |   |   |   |   C3 <= 5
|   |   |   |   |   |   |   |   |   |   |   |   |   |   |   |   |   |   |   |   C2 <= 4
|   |   |   |   |   |   |   |   |   |   |   |   |   |   |   |   |   |   |   |   |   C2 <= 3: 0 (36.0)
|   |   |   |   |   |   |   |   |   |   |   |   |   |   |   |   |   |   |   |   |   C2 > 3
|   |   |   |   |   |   |   |   |   |   |   |   |   |   |   |   |   |   |   |   |   |   C3 <= 4: 1 (5.0)
|   |   |   |   |   |   |   |   |   |   |   |   |   |   |   |   |   |   |   |   |   |   C3 > 4: 0 (20.0)
|   |   |   |   |   |   |   |   |   |   |   |   |   |   |   |   |   |   |   |   C2 > 4: 1 (5.0)
|   |   |   |   |   |   |   |   |   |   |   |   |   |   |   |   |   |   |   C3 > 5: 0 (164.0/1.0)
|   |   |   |   |   |   |   |   |   |   |   |   |   |   |   |   |   C3 > 8: 1 (28.0)
|   |   |   |   |   |   |   |   |   |   |   |   |   |   |   |   C4 > 9
|   |   |   |   |   |   |   |   |   |   |   |   |   |   |   |   |   C3 <= 5
|   |   |   |   |   |   |   |   |   |   |   |   |   |   |   |   |   |   C2 <= 3: 0 (32.0)
|   |   |   |   |   |   |   |   |   |   |   |   |   |   |   |   |   |   C2 > 3
|   |   |   |   |   |   |   |   |   |   |   |   |   |   |   |   |   |   |   C3 <= 4: 1 (8.0)
|   |   |   |   |   |   |   |   |   |   |   |   |   |   |   |   |   |   |   C3 > 4
|   |   |   |   |   |   |   |   |   |   |   |   |   |   |   |   |   |   |   |   C2 <= 4: 0 (16.0)
|   |   |   |   |   |   |   |   |   |   |   |   |   |   |   |   |   |   |   |   C2 > 4: 1 (3.0)
|   |   |   |   |   |   |   |   |   |   |   |   |   |   |   |   |   C3 > 5: 0 (238.0)
|   |   |   |   |   |   |   |   |   |   |   |   |   |   |   C4 > 10
|   |   |   |   |   |   |   |   |   |   |   |   |   |   |   |   C5 <= 11
|   |   |   |   |   |   |   |   |   |   |   |   |   |   |   |   |   C3 <= 5
|   |   |   |   |   |   |   |   |   |   |   |   |   |   |   |   |   |   C2 <= 3: 1 (6.0)
|   |   |   |   |   |   |   |   |   |   |   |   |   |   |   |   |   |   C2 > 3: 2 (7.0/1.0)
|   |   |   |   |   |   |   |   |   |   |   |   |   |   |   |   |   C3 > 5: 1 (41.0)
|   |   |   |   |   |   |   |   |   |   |   |   |   |   |   |   C5 > 11
|   |   |   |   |   |   |   |   |   |   |   |   |   |   |   |   |   C3 <= 5
|   |   |   |   |   |   |   |   |   |   |   |   |   |   |   |   |   |   C2 <= 3: 0 (15.0)
|   |   |   |   |   |   |   |   |   |   |   |   |   |   |   |   |   |   C2 > 3
|   |   |   |   |   |   |   |   |   |   |   |   |   |   |   |   |   |   |   C3 <= 4: 1 (6.0)
|   |   |   |   |   |   |   |   |   |   |   |   |   |   |   |   |   |   |   C3 > 4
|   |   |   |   |   |   |   |   |   |   |   |   |   |   |   |   |   |   |   |   C2 <= 4: 0 (8.0)
|   |   |   |   |   |   |   |   |   |   |   |   |   |   |   |   |   |   |   |   C2 > 4: 1 (4.0)
|   |   |   |   |   |   |   |   |   |   |   |   |   |   |   |   |   C3 > 5: 0 (106.0/1.0)
|   |   |   |   |   |   |   |   |   |   |   |   C2 > 5
|   |   |   |   |   |   |   |   |   |   |   |   |   C3 <= 6
|   |   |   |   |   |   |   |   |   |   |   |   |   |   C4 <= 6: 3 (1.0)
|   |   |   |   |   |   |   |   |   |   |   |   |   |   C4 > 6: 1 (60.0/1.0)
|   |   |   |   |   |   |   |   |   |   |   |   |   C3 > 6
|   |   |   |   |   |   |   |   |   |   |   |   |   |   C4 <= 9
|   |   |   |   |   |   |   |   |   |   |   |   |   |   |   C3 <= 8
|   |   |   |   |   |   |   |   |   |   |   |   |   |   |   |   C4 <= 8
|   |   |   |   |   |   |   |   |   |   |   |   |   |   |   |   |   C2 <= 6
|   |   |   |   |   |   |   |   |   |   |   |   |   |   |   |   |   |   C4 <= 7: 1 (19.0)
|   |   |   |   |   |   |   |   |   |   |   |   |   |   |   |   |   |   C4 > 7
|   |   |   |   |   |   |   |   |   |   |   |   |   |   |   |   |   |   |   C3 <= 7: 0 (42.0)
|   |   |   |   |   |   |   |   |   |   |   |   |   |   |   |   |   |   |   C3 > 7: 1 (14.0)
|   |   |   |   |   |   |   |   |   |   |   |   |   |   |   |   |   C2 > 6
|   |   |   |   |   |   |   |   |   |   |   |   |   |   |   |   |   |   C4 <= 7: 3 (4.0)
|   |   |   |   |   |   |   |   |   |   |   |   |   |   |   |   |   |   C4 > 7
|   |   |   |   |   |   |   |   |   |   |   |   |   |   |   |   |   |   |   C2 <= 7: 1 (31.0)
|   |   |   |   |   |   |   |   |   |   |   |   |   |   |   |   |   |   |   C2 > 7: 3 (2.0)
|   |   |   |   |   |   |   |   |   |   |   |   |   |   |   |   C4 > 8
|   |   |   |   |   |   |   |   |   |   |   |   |   |   |   |   |   C2 <= 6: 0 (71.0/1.0)
|   |   |   |   |   |   |   |   |   |   |   |   |   |   |   |   |   C2 > 6
|   |   |   |   |   |   |   |   |   |   |   |   |   |   |   |   |   |   C3 <= 7: 1 (13.0)
|   |   |   |   |   |   |   |   |   |   |   |   |   |   |   |   |   |   C3 > 7
|   |   |   |   |   |   |   |   |   |   |   |   |   |   |   |   |   |   |   C2 <= 7: 0 (35.0)
|   |   |   |   |   |   |   |   |   |   |   |   |   |   |   |   |   |   |   C2 > 7: 1 (12.0)
|   |   |   |   |   |   |   |   |   |   |   |   |   |   |   C3 > 8: 1 (43.0)
|   |   |   |   |   |   |   |   |   |   |   |   |   |   C4 > 9
|   |   |   |   |   |   |   |   |   |   |   |   |   |   |   C3 <= 8
|   |   |   |   |   |   |   |   |   |   |   |   |   |   |   |   C2 <= 7
|   |   |   |   |   |   |   |   |   |   |   |   |   |   |   |   |   C3 <= 7
|   |   |   |   |   |   |   |   |   |   |   |   |   |   |   |   |   |   C2 <= 6
|   |   |   |   |   |   |   |   |   |   |   |   |   |   |   |   |   |   |   C4 <= 10: 0 (35.0)
|   |   |   |   |   |   |   |   |   |   |   |   |   |   |   |   |   |   |   C4 > 10
|   |   |   |   |   |   |   |   |   |   |   |   |   |   |   |   |   |   |   |   C5 <= 11: 1 (11.0)
|   |   |   |   |   |   |   |   |   |   |   |   |   |   |   |   |   |   |   |   C5 > 11: 0 (12.0)
|   |   |   |   |   |   |   |   |   |   |   |   |   |   |   |   |   |   C2 > 6
|   |   |   |   |   |   |   |   |   |   |   |   |   |   |   |   |   |   |   C4 <= 10: 1 (16.0)
|   |   |   |   |   |   |   |   |   |   |   |   |   |   |   |   |   |   |   C4 > 10
|   |   |   |   |   |   |   |   |   |   |   |   |   |   |   |   |   |   |   |   C5 <= 11: 2 (2.0)
|   |   |   |   |   |   |   |   |   |   |   |   |   |   |   |   |   |   |   |   C5 > 11: 1 (4.0)
|   |   |   |   |   |   |   |   |   |   |   |   |   |   |   |   |   C3 > 7
|   |   |   |   |   |   |   |   |   |   |   |   |   |   |   |   |   |   C5 <= 11
|   |   |   |   |   |   |   |   |   |   |   |   |   |   |   |   |   |   |   C4 <= 10: 0 (37.0)
|   |   |   |   |   |   |   |   |   |   |   |   |   |   |   |   |   |   |   C4 > 10: 1 (9.0)
|   |   |   |   |   |   |   |   |   |   |   |   |   |   |   |   |   |   C5 > 11: 0 (81.0)
|   |   |   |   |   |   |   |   |   |   |   |   |   |   |   |   C2 > 7
|   |   |   |   |   |   |   |   |   |   |   |   |   |   |   |   |   C4 <= 10: 1 (17.0)
|   |   |   |   |   |   |   |   |   |   |   |   |   |   |   |   |   C4 > 10
|   |   |   |   |   |   |   |   |   |   |   |   |   |   |   |   |   |   C5 <= 11: 2 (3.0)
|   |   |   |   |   |   |   |   |   |   |   |   |   |   |   |   |   |   C5 > 11: 1 (5.0)
|   |   |   |   |   |   |   |   |   |   |   |   |   |   |   C3 > 8
|   |   |   |   |   |   |   |   |   |   |   |   |   |   |   |   C4 <= 10: 0 (134.0/1.0)
|   |   |   |   |   |   |   |   |   |   |   |   |   |   |   |   C4 > 10
|   |   |   |   |   |   |   |   |   |   |   |   |   |   |   |   |   C5 <= 11: 1 (18.0)
|   |   |   |   |   |   |   |   |   |   |   |   |   |   |   |   |   C5 > 11: 0 (60.0)
|   |   |   |   |   |   |   |   |   |   C3 > 9
|   |   |   |   |   |   |   |   |   |   |   C5 <= 11
|   |   |   |   |   |   |   |   |   |   |   |   C3 <= 10
|   |   |   |   |   |   |   |   |   |   |   |   |   C5 <= 10: 3 (5.0)
|   |   |   |   |   |   |   |   |   |   |   |   |   C5 > 10: 1 (100.0)
|   |   |   |   |   |   |   |   |   |   |   |   C3 > 10: 3 (7.0/1.0)
|   |   |   |   |   |   |   |   |   |   |   C5 > 11
|   |   |   |   |   |   |   |   |   |   |   |   C4 <= 10: 1 (52.0/1.0)
|   |   |   |   |   |   |   |   |   |   |   |   C4 > 10
|   |   |   |   |   |   |   |   |   |   |   |   |   C3 <= 10
|   |   |   |   |   |   |   |   |   |   |   |   |   |   C2 <= 2
|   |   |   |   |   |   |   |   |   |   |   |   |   |   |   C1 <= 1: 0 (15.0)
|   |   |   |   |   |   |   |   |   |   |   |   |   |   |   C1 > 1: 1 (3.0)
|   |   |   |   |   |   |   |   |   |   |   |   |   |   C2 > 2: 0 (111.0/2.0)
|   |   |   |   |   |   |   |   |   |   |   |   |   C3 > 10: 1 (46.0)
|   |   |   |   |   |   |   |   |   C4 > 11
|   |   |   |   |   |   |   |   |   |   C1 <= 1
|   |   |   |   |   |   |   |   |   |   |   C3 <= 8
|   |   |   |   |   |   |   |   |   |   |   |   C2 <= 7: 1 (74.0/5.0)
|   |   |   |   |   |   |   |   |   |   |   |   C2 > 7: 2 (3.0)
|   |   |   |   |   |   |   |   |   |   |   C3 > 8: 1 (84.0)
|   |   |   |   |   |   |   |   |   |   C1 > 1
|   |   |   |   |   |   |   |   |   |   |   C2 <= 2: 2 (14.0)
|   |   |   |   |   |   |   |   |   |   |   C2 > 2
|   |   |   |   |   |   |   |   |   |   |   |   C3 <= 7
|   |   |   |   |   |   |   |   |   |   |   |   |   C2 <= 6
|   |   |   |   |   |   |   |   |   |   |   |   |   |   C2 <= 4: 1 (20.0/1.0)
|   |   |   |   |   |   |   |   |   |   |   |   |   |   C2 > 4
|   |   |   |   |   |   |   |   |   |   |   |   |   |   |   C3 <= 5: 2 (2.0)
|   |   |   |   |   |   |   |   |   |   |   |   |   |   |   C3 > 5: 1 (9.0/1.0)
|   |   |   |   |   |   |   |   |   |   |   |   |   C2 > 6: 2 (5.0)
|   |   |   |   |   |   |   |   |   |   |   |   C3 > 7: 1 (81.0)
|   |   |   |   |   |   |   |   C5 > 12
|   |   |   |   |   |   |   |   |   C2 <= 2
|   |   |   |   |   |   |   |   |   |   C1 <= 1
|   |   |   |   |   |   |   |   |   |   |   C3 <= 5: 0 (120.0/1.0)
|   |   |   |   |   |   |   |   |   |   |   C3 > 5
|   |   |   |   |   |   |   |   |   |   |   |   C4 <= 7
|   |   |   |   |   |   |   |   |   |   |   |   |   C3 <= 6
|   |   |   |   |   |   |   |   |   |   |   |   |   |   C4 <= 6: 1 (4.0)
|   |   |   |   |   |   |   |   |   |   |   |   |   |   C4 > 6: 0 (9.0)
|   |   |   |   |   |   |   |   |   |   |   |   |   C3 > 6: 1 (7.0)
|   |   |   |   |   |   |   |   |   |   |   |   C4 > 7
|   |   |   |   |   |   |   |   |   |   |   |   |   C3 <= 7: 0 (113.0)
|   |   |   |   |   |   |   |   |   |   |   |   |   C3 > 7
|   |   |   |   |   |   |   |   |   |   |   |   |   |   C4 <= 10
|   |   |   |   |   |   |   |   |   |   |   |   |   |   |   C3 <= 9
|   |   |   |   |   |   |   |   |   |   |   |   |   |   |   |   C4 <= 9
|   |   |   |   |   |   |   |   |   |   |   |   |   |   |   |   |   C3 <= 8
|   |   |   |   |   |   |   |   |   |   |   |   |   |   |   |   |   |   C4 <= 8: 1 (3.0)
|   |   |   |   |   |   |   |   |   |   |   |   |   |   |   |   |   |   C4 > 8: 0 (4.0)
|   |   |   |   |   |   |   |   |   |   |   |   |   |   |   |   |   C3 > 8: 1 (5.0)
|   |   |   |   |   |   |   |   |   |   |   |   |   |   |   |   C4 > 9: 0 (17.0)
|   |   |   |   |   |   |   |   |   |   |   |   |   |   |   C3 > 9: 1 (6.0)
|   |   |   |   |   |   |   |   |   |   |   |   |   |   C4 > 10
|   |   |   |   |   |   |   |   |   |   |   |   |   |   |   C3 <= 10: 0 (57.0)
|   |   |   |   |   |   |   |   |   |   |   |   |   |   |   C3 > 10
|   |   |   |   |   |   |   |   |   |   |   |   |   |   |   |   C4 <= 11: 1 (2.0)
|   |   |   |   |   |   |   |   |   |   |   |   |   |   |   |   C4 > 11: 0 (10.0)
|   |   |   |   |   |   |   |   |   |   C1 > 1
|   |   |   |   |   |   |   |   |   |   |   C3 <= 5: 1 (46.0)
|   |   |   |   |   |   |   |   |   |   |   C3 > 5
|   |   |   |   |   |   |   |   |   |   |   |   C4 <= 8
|   |   |   |   |   |   |   |   |   |   |   |   |   C3 <= 7
|   |   |   |   |   |   |   |   |   |   |   |   |   |   C4 <= 6: 2 (2.0)
|   |   |   |   |   |   |   |   |   |   |   |   |   |   C4 > 6: 1 (9.0/1.0)
|   |   |   |   |   |   |   |   |   |   |   |   |   C3 > 7: 2 (5.0)
|   |   |   |   |   |   |   |   |   |   |   |   C4 > 8
|   |   |   |   |   |   |   |   |   |   |   |   |   C3 <= 8: 1 (42.0)
|   |   |   |   |   |   |   |   |   |   |   |   |   C3 > 8
|   |   |   |   |   |   |   |   |   |   |   |   |   |   C4 <= 9: 2 (2.0)
|   |   |   |   |   |   |   |   |   |   |   |   |   |   C4 > 9: 1 (27.0/2.0)
|   |   |   |   |   |   |   |   |   C2 > 2
|   |   |   |   |   |   |   |   |   |   C4 <= 8
|   |   |   |   |   |   |   |   |   |   |   C3 <= 7
|   |   |   |   |   |   |   |   |   |   |   |   C2 <= 4
|   |   |   |   |   |   |   |   |   |   |   |   |   C4 <= 7
|   |   |   |   |   |   |   |   |   |   |   |   |   |   C3 <= 6
|   |   |   |   |   |   |   |   |   |   |   |   |   |   |   C2 <= 3
|   |   |   |   |   |   |   |   |   |   |   |   |   |   |   |   C3 <= 5: 0 (86.0)
|   |   |   |   |   |   |   |   |   |   |   |   |   |   |   |   C3 > 5
|   |   |   |   |   |   |   |   |   |   |   |   |   |   |   |   |   C4 <= 6: 1 (4.0)
|   |   |   |   |   |   |   |   |   |   |   |   |   |   |   |   |   C4 > 6: 0 (17.0)
|   |   |   |   |   |   |   |   |   |   |   |   |   |   |   C2 > 3
|   |   |   |   |   |   |   |   |   |   |   |   |   |   |   |   C3 <= 4: 1 (13.0)
|   |   |   |   |   |   |   |   |   |   |   |   |   |   |   |   C3 > 4
|   |   |   |   |   |   |   |   |   |   |   |   |   |   |   |   |   C4 <= 6
|   |   |   |   |   |   |   |   |   |   |   |   |   |   |   |   |   |   C3 <= 5: 0 (19.0)
|   |   |   |   |   |   |   |   |   |   |   |   |   |   |   |   |   |   C3 > 5: 1 (6.0)
|   |   |   |   |   |   |   |   |   |   |   |   |   |   |   |   |   C4 > 6: 0 (39.0)
|   |   |   |   |   |   |   |   |   |   |   |   |   |   C3 > 6: 1 (12.0)
|   |   |   |   |   |   |   |   |   |   |   |   |   C4 > 7
|   |   |   |   |   |   |   |   |   |   |   |   |   |   C3 <= 4
|   |   |   |   |   |   |   |   |   |   |   |   |   |   |   C2 <= 3: 0 (28.0)
|   |   |   |   |   |   |   |   |   |   |   |   |   |   |   C2 > 3: 1 (6.0)
|   |   |   |   |   |   |   |   |   |   |   |   |   |   C3 > 4: 0 (121.0)
|   |   |   |   |   |   |   |   |   |   |   |   C2 > 4
|   |   |   |   |   |   |   |   |   |   |   |   |   C2 <= 6
|   |   |   |   |   |   |   |   |   |   |   |   |   |   C3 <= 5: 1 (31.0)
|   |   |   |   |   |   |   |   |   |   |   |   |   |   C3 > 5
|   |   |   |   |   |   |   |   |   |   |   |   |   |   |   C4 <= 7
|   |   |   |   |   |   |   |   |   |   |   |   |   |   |   |   C2 <= 5
|   |   |   |   |   |   |   |   |   |   |   |   |   |   |   |   |   C3 <= 6
|   |   |   |   |   |   |   |   |   |   |   |   |   |   |   |   |   |   C4 <= 6: 1 (8.0)
|   |   |   |   |   |   |   |   |   |   |   |   |   |   |   |   |   |   C4 > 6: 0 (20.0)
|   |   |   |   |   |   |   |   |   |   |   |   |   |   |   |   |   C3 > 6: 1 (8.0)
|   |   |   |   |   |   |   |   |   |   |   |   |   |   |   |   C2 > 5
|   |   |   |   |   |   |   |   |   |   |   |   |   |   |   |   |   C4 <= 6: 3 (1.0)
|   |   |   |   |   |   |   |   |   |   |   |   |   |   |   |   |   C4 > 6: 1 (15.0)
|   |   |   |   |   |   |   |   |   |   |   |   |   |   |   C4 > 7
|   |   |   |   |   |   |   |   |   |   |   |   |   |   |   |   C3 <= 6
|   |   |   |   |   |   |   |   |   |   |   |   |   |   |   |   |   C2 <= 5: 0 (23.0)
|   |   |   |   |   |   |   |   |   |   |   |   |   |   |   |   |   C2 > 5: 1 (4.0)
|   |   |   |   |   |   |   |   |   |   |   |   |   |   |   |   C3 > 6: 0 (44.0)
|   |   |   |   |   |   |   |   |   |   |   |   |   C2 > 6
|   |   |   |   |   |   |   |   |   |   |   |   |   |   C4 <= 7: 3 (3.0)
|   |   |   |   |   |   |   |   |   |   |   |   |   |   C4 > 7: 1 (1.0)
|   |   |   |   |   |   |   |   |   |   |   C3 > 7
|   |   |   |   |   |   |   |   |   |   |   |   C2 <= 7: 1 (41.0)
|   |   |   |   |   |   |   |   |   |   |   |   C2 > 7: 3 (4.0)
|   |   |   |   |   |   |   |   |   |   C4 > 8
|   |   |   |   |   |   |   |   |   |   |   C2 <= 5
|   |   |   |   |   |   |   |   |   |   |   |   C3 <= 9
|   |   |   |   |   |   |   |   |   |   |   |   |   C3 <= 5
|   |   |   |   |   |   |   |   |   |   |   |   |   |   C2 <= 3: 0 (157.0/1.0)
|   |   |   |   |   |   |   |   |   |   |   |   |   |   C2 > 3
|   |   |   |   |   |   |   |   |   |   |   |   |   |   |   C3 <= 4: 1 (30.0)
|   |   |   |   |   |   |   |   |   |   |   |   |   |   |   C3 > 4
|   |   |   |   |   |   |   |   |   |   |   |   |   |   |   |   C2 <= 4: 0 (83.0)
|   |   |   |   |   |   |   |   |   |   |   |   |   |   |   |   C2 > 4: 1 (22.0)
|   |   |   |   |   |   |   |   |   |   |   |   |   C3 > 5
|   |   |   |   |   |   |   |   |   |   |   |   |   |   C3 <= 8: 0 (724.0/4.0)
|   |   |   |   |   |   |   |   |   |   |   |   |   |   C3 > 8
|   |   |   |   |   |   |   |   |   |   |   |   |   |   |   C4 <= 9: 1 (17.0)
|   |   |   |   |   |   |   |   |   |   |   |   |   |   |   C4 > 9: 0 (173.0)
|   |   |   |   |   |   |   |   |   |   |   |   C3 > 9
|   |   |   |   |   |   |   |   |   |   |   |   |   C4 <= 10: 1 (25.0)
|   |   |   |   |   |   |   |   |   |   |   |   |   C4 > 10
|   |   |   |   |   |   |   |   |   |   |   |   |   |   C4 <= 11
|   |   |   |   |   |   |   |   |   |   |   |   |   |   |   C3 <= 10: 0 (60.0)
|   |   |   |   |   |   |   |   |   |   |   |   |   |   |   C3 > 10: 1 (22.0)
|   |   |   |   |   |   |   |   |   |   |   |   |   |   C4 > 11: 0 (116.0)
|   |   |   |   |   |   |   |   |   |   |   C2 > 5
|   |   |   |   |   |   |   |   |   |   |   |   C3 <= 6: 1 (28.0)
|   |   |   |   |   |   |   |   |   |   |   |   C3 > 6
|   |   |   |   |   |   |   |   |   |   |   |   |   C4 <= 11
|   |   |   |   |   |   |   |   |   |   |   |   |   |   C3 <= 10
|   |   |   |   |   |   |   |   |   |   |   |   |   |   |   C4 <= 10
|   |   |   |   |   |   |   |   |   |   |   |   |   |   |   |   C3 <= 9
|   |   |   |   |   |   |   |   |   |   |   |   |   |   |   |   |   C2 <= 6
|   |   |   |   |   |   |   |   |   |   |   |   |   |   |   |   |   |   C3 <= 8: 0 (73.0)
|   |   |   |   |   |   |   |   |   |   |   |   |   |   |   |   |   |   C3 > 8
|   |   |   |   |   |   |   |   |   |   |   |   |   |   |   |   |   |   |   C4 <= 9: 1 (6.0)
|   |   |   |   |   |   |   |   |   |   |   |   |   |   |   |   |   |   |   C4 > 9: 0 (19.0)
|   |   |   |   |   |   |   |   |   |   |   |   |   |   |   |   |   C2 > 6
|   |   |   |   |   |   |   |   |   |   |   |   |   |   |   |   |   |   C3 <= 7: 1 (15.0)
|   |   |   |   |   |   |   |   |   |   |   |   |   |   |   |   |   |   C3 > 7
|   |   |   |   |   |   |   |   |   |   |   |   |   |   |   |   |   |   |   C4 <= 9
|   |   |   |   |   |   |   |   |   |   |   |   |   |   |   |   |   |   |   |   C3 <= 8
|   |   |   |   |   |   |   |   |   |   |   |   |   |   |   |   |   |   |   |   |   C2 <= 7: 0 (19.0)
|   |   |   |   |   |   |   |   |   |   |   |   |   |   |   |   |   |   |   |   |   C2 > 7: 1 (4.0)
|   |   |   |   |   |   |   |   |   |   |   |   |   |   |   |   |   |   |   |   C3 > 8: 1 (17.0)
|   |   |   |   |   |   |   |   |   |   |   |   |   |   |   |   |   |   |   C4 > 9
|   |   |   |   |   |   |   |   |   |   |   |   |   |   |   |   |   |   |   |   C3 <= 8
|   |   |   |   |   |   |   |   |   |   |   |   |   |   |   |   |   |   |   |   |   C2 <= 7: 0 (16.0)
|   |   |   |   |   |   |   |   |   |   |   |   |   |   |   |   |   |   |   |   |   C2 > 7: 1 (11.0)
|   |   |   |   |   |   |   |   |   |   |   |   |   |   |   |   |   |   |   |   C3 > 8: 0 (40.0)
|   |   |   |   |   |   |   |   |   |   |   |   |   |   |   |   C3 > 9: 1 (21.0)
|   |   |   |   |   |   |   |   |   |   |   |   |   |   |   C4 > 10
|   |   |   |   |   |   |   |   |   |   |   |   |   |   |   |   C3 <= 8
|   |   |   |   |   |   |   |   |   |   |   |   |   |   |   |   |   C2 <= 7
|   |   |   |   |   |   |   |   |   |   |   |   |   |   |   |   |   |   C2 <= 6: 0 (40.0)
|   |   |   |   |   |   |   |   |   |   |   |   |   |   |   |   |   |   C2 > 6
|   |   |   |   |   |   |   |   |   |   |   |   |   |   |   |   |   |   |   C3 <= 7: 1 (6.0)
|   |   |   |   |   |   |   |   |   |   |   |   |   |   |   |   |   |   |   C3 > 7: 0 (15.0)
|   |   |   |   |   |   |   |   |   |   |   |   |   |   |   |   |   C2 > 7: 1 (10.0)
|   |   |   |   |   |   |   |   |   |   |   |   |   |   |   |   C3 > 8: 0 (122.0)
|   |   |   |   |   |   |   |   |   |   |   |   |   |   C3 > 10: 1 (23.0)
|   |   |   |   |   |   |   |   |   |   |   |   |   C4 > 11
|   |   |   |   |   |   |   |   |   |   |   |   |   |   C3 <= 8
|   |   |   |   |   |   |   |   |   |   |   |   |   |   |   C2 <= 6: 0 (42.0)
|   |   |   |   |   |   |   |   |   |   |   |   |   |   |   C2 > 6
|   |   |   |   |   |   |   |   |   |   |   |   |   |   |   |   C3 <= 7: 1 (11.0)
|   |   |   |   |   |   |   |   |   |   |   |   |   |   |   |   C3 > 7
|   |   |   |   |   |   |   |   |   |   |   |   |   |   |   |   |   C2 <= 7: 0 (20.0)
|   |   |   |   |   |   |   |   |   |   |   |   |   |   |   |   |   C2 > 7: 1 (6.0)
|   |   |   |   |   |   |   |   |   |   |   |   |   |   C3 > 8: 0 (171.0)
|   |   |   |   |   |   C1 > 2
|   |   |   |   |   |   |   C2 <= 3
|   |   |   |   |   |   |   |   C3 <= 3: 3 (19.0/2.0)
|   |   |   |   |   |   |   |   C3 > 3
|   |   |   |   |   |   |   |   |   C3 <= 5
|   |   |   |   |   |   |   |   |   |   C4 <= 8
|   |   |   |   |   |   |   |   |   |   |   C5 <= 7
|   |   |   |   |   |   |   |   |   |   |   |   C4 <= 6: 1 (14.0)
|   |   |   |   |   |   |   |   |   |   |   |   C4 > 6: 2 (2.0)
|   |   |   |   |   |   |   |   |   |   |   C5 > 7: 1 (146.0)
|   |   |   |   |   |   |   |   |   |   C4 > 8
|   |   |   |   |   |   |   |   |   |   |   C5 <= 9: 2 (4.0)
|   |   |   |   |   |   |   |   |   |   |   C5 > 9
|   |   |   |   |   |   |   |   |   |   |   |   C4 <= 11
|   |   |   |   |   |   |   |   |   |   |   |   |   C5 <= 11
|   |   |   |   |   |   |   |   |   |   |   |   |   |   C4 <= 10
|   |   |   |   |   |   |   |   |   |   |   |   |   |   |   C4 <= 9: 1 (13.0)
|   |   |   |   |   |   |   |   |   |   |   |   |   |   |   C4 > 9
|   |   |   |   |   |   |   |   |   |   |   |   |   |   |   |   C5 <= 10: 2 (2.0)
|   |   |   |   |   |   |   |   |   |   |   |   |   |   |   |   C5 > 10: 1 (6.0)
|   |   |   |   |   |   |   |   |   |   |   |   |   |   C4 > 10: 2 (2.0)
|   |   |   |   |   |   |   |   |   |   |   |   |   C5 > 11: 1 (48.0)
|   |   |   |   |   |   |   |   |   |   |   |   C4 > 11
|   |   |   |   |   |   |   |   |   |   |   |   |   C5 <= 12: 2 (4.0)
|   |   |   |   |   |   |   |   |   |   |   |   |   C5 > 12: 1 (5.0)
|   |   |   |   |   |   |   |   |   C3 > 5
|   |   |   |   |   |   |   |   |   |   C4 <= 6: 2 (12.0)
|   |   |   |   |   |   |   |   |   |   C4 > 6
|   |   |   |   |   |   |   |   |   |   |   C5 <= 12
|   |   |   |   |   |   |   |   |   |   |   |   C4 <= 11
|   |   |   |   |   |   |   |   |   |   |   |   |   C3 <= 7
|   |   |   |   |   |   |   |   |   |   |   |   |   |   C4 <= 7
|   |   |   |   |   |   |   |   |   |   |   |   |   |   |   C3 <= 6
|   |   |   |   |   |   |   |   |   |   |   |   |   |   |   |   C5 <= 7: 2 (1.0)
|   |   |   |   |   |   |   |   |   |   |   |   |   |   |   |   C5 > 7: 1 (11.0)
|   |   |   |   |   |   |   |   |   |   |   |   |   |   |   C3 > 6: 2 (12.0)
|   |   |   |   |   |   |   |   |   |   |   |   |   |   C4 > 7
|   |   |   |   |   |   |   |   |   |   |   |   |   |   |   C4 <= 10
|   |   |   |   |   |   |   |   |   |   |   |   |   |   |   |   C5 <= 8: 2 (1.0)
|   |   |   |   |   |   |   |   |   |   |   |   |   |   |   |   C5 > 8: 1 (76.0/1.0)
|   |   |   |   |   |   |   |   |   |   |   |   |   |   |   C4 > 10
|   |   |   |   |   |   |   |   |   |   |   |   |   |   |   |   C5 <= 11: 2 (4.0)
|   |   |   |   |   |   |   |   |   |   |   |   |   |   |   |   C5 > 11: 1 (10.0)
|   |   |   |   |   |   |   |   |   |   |   |   |   C3 > 7
|   |   |   |   |   |   |   |   |   |   |   |   |   |   C4 <= 8: 2 (14.0)
|   |   |   |   |   |   |   |   |   |   |   |   |   |   C4 > 8
|   |   |   |   |   |   |   |   |   |   |   |   |   |   |   C5 <= 11
|   |   |   |   |   |   |   |   |   |   |   |   |   |   |   |   C3 <= 9
|   |   |   |   |   |   |   |   |   |   |   |   |   |   |   |   |   C4 <= 10
|   |   |   |   |   |   |   |   |   |   |   |   |   |   |   |   |   |   C5 <= 10
|   |   |   |   |   |   |   |   |   |   |   |   |   |   |   |   |   |   |   C4 <= 9
|   |   |   |   |   |   |   |   |   |   |   |   |   |   |   |   |   |   |   |   S5 = H: 1 (1.0)
|   |   |   |   |   |   |   |   |   |   |   |   |   |   |   |   |   |   |   |   S5 = S: 2 (1.0)
|   |   |   |   |   |   |   |   |   |   |   |   |   |   |   |   |   |   |   |   S5 = D: 2 (1.0)
|   |   |   |   |   |   |   |   |   |   |   |   |   |   |   |   |   |   |   |   S5 = C: 1 (3.0)
|   |   |   |   |   |   |   |   |   |   |   |   |   |   |   |   |   |   |   C4 > 9: 2 (4.0)
|   |   |   |   |   |   |   |   |   |   |   |   |   |   |   |   |   |   C5 > 10
|   |   |   |   |   |   |   |   |   |   |   |   |   |   |   |   |   |   |   C4 <= 9
|   |   |   |   |   |   |   |   |   |   |   |   |   |   |   |   |   |   |   |   C3 <= 8: 1 (5.0)
|   |   |   |   |   |   |   |   |   |   |   |   |   |   |   |   |   |   |   |   C3 > 8: 2 (2.0)
|   |   |   |   |   |   |   |   |   |   |   |   |   |   |   |   |   |   |   C4 > 9: 1 (10.0)
|   |   |   |   |   |   |   |   |   |   |   |   |   |   |   |   |   C4 > 10: 2 (3.0)
|   |   |   |   |   |   |   |   |   |   |   |   |   |   |   |   C3 > 9
|   |   |   |   |   |   |   |   |   |   |   |   |   |   |   |   |   C5 <= 10: FH (1.0)
|   |   |   |   |   |   |   |   |   |   |   |   |   |   |   |   |   C5 > 10: 2 (3.0)
|   |   |   |   |   |   |   |   |   |   |   |   |   |   |   C5 > 11
|   |   |   |   |   |   |   |   |   |   |   |   |   |   |   |   C3 <= 10: 1 (24.0)
|   |   |   |   |   |   |   |   |   |   |   |   |   |   |   |   C3 > 10: 2 (2.0)
|   |   |   |   |   |   |   |   |   |   |   |   C4 > 11: 2 (8.0)
|   |   |   |   |   |   |   |   |   |   |   C5 > 12: 1 (82.0/5.0)
|   |   |   |   |   |   |   C2 > 3
|   |   |   |   |   |   |   |   C3 <= 4
|   |   |   |   |   |   |   |   |   C1 <= 3
|   |   |   |   |   |   |   |   |   |   C4 <= 8: 1 (55.0)
|   |   |   |   |   |   |   |   |   |   C4 > 8
|   |   |   |   |   |   |   |   |   |   |   C5 <= 10
|   |   |   |   |   |   |   |   |   |   |   |   C4 <= 9
|   |   |   |   |   |   |   |   |   |   |   |   |   S3 = H: 1 (3.0)
|   |   |   |   |   |   |   |   |   |   |   |   |   S3 = S: 2 (1.0)
|   |   |   |   |   |   |   |   |   |   |   |   |   S3 = D: 1 (0.0)
|   |   |   |   |   |   |   |   |   |   |   |   |   S3 = C: 1 (0.0)
|   |   |   |   |   |   |   |   |   |   |   |   C4 > 9: 2 (4.0)
|   |   |   |   |   |   |   |   |   |   |   C5 > 10: 1 (36.0/1.0)
|   |   |   |   |   |   |   |   |   C1 > 3: 3 (17.0/3.0)
|   |   |   |   |   |   |   |   C3 > 4
|   |   |   |   |   |   |   |   |   C5 <= 11
|   |   |   |   |   |   |   |   |   |   C4 <= 10
|   |   |   |   |   |   |   |   |   |   |   C3 <= 9
|   |   |   |   |   |   |   |   |   |   |   |   C5 <= 10
|   |   |   |   |   |   |   |   |   |   |   |   |   C4 <= 9
|   |   |   |   |   |   |   |   |   |   |   |   |   |   C3 <= 8
|   |   |   |   |   |   |   |   |   |   |   |   |   |   |   C5 <= 8
|   |   |   |   |   |   |   |   |   |   |   |   |   |   |   |   C2 <= 6
|   |   |   |   |   |   |   |   |   |   |   |   |   |   |   |   |   C1 <= 3
|   |   |   |   |   |   |   |   |   |   |   |   |   |   |   |   |   |   C5 <= 7
|   |   |   |   |   |   |   |   |   |   |   |   |   |   |   |   |   |   |   C3 <= 5
|   |   |   |   |   |   |   |   |   |   |   |   |   |   |   |   |   |   |   |   C2 <= 4
|   |   |   |   |   |   |   |   |   |   |   |   |   |   |   |   |   |   |   |   |   C5 <= 6: 1 (6.0)
|   |   |   |   |   |   |   |   |   |   |   |   |   |   |   |   |   |   |   |   |   C5 > 6
|   |   |   |   |   |   |   |   |   |   |   |   |   |   |   |   |   |   |   |   |   |   C4 <= 6: S (8.0)
|   |   |   |   |   |   |   |   |   |   |   |   |   |   |   |   |   |   |   |   |   |   C4 > 6: 1 (3.0)
|   |   |   |   |   |   |   |   |   |   |   |   |   |   |   |   |   |   |   |   C2 > 4
|   |   |   |   |   |   |   |   |   |   |   |   |   |   |   |   |   |   |   |   |   C4 <= 6: 1 (3.0)
|   |   |   |   |   |   |   |   |   |   |   |   |   |   |   |   |   |   |   |   |   C4 > 6: 2 (2.0)
|   |   |   |   |   |   |   |   |   |   |   |   |   |   |   |   |   |   |   C3 > 5
|   |   |   |   |   |   |   |   |   |   |   |   |   |   |   |   |   |   |   |   C2 <= 5
|   |   |   |   |   |   |   |   |   |   |   |   |   |   |   |   |   |   |   |   |   C3 <= 6
|   |   |   |   |   |   |   |   |   |   |   |   |   |   |   |   |   |   |   |   |   |   C5 <= 6: 3 (2.0)
|   |   |   |   |   |   |   |   |   |   |   |   |   |   |   |   |   |   |   |   |   |   C5 > 6: 1 (20.0)
|   |   |   |   |   |   |   |   |   |   |   |   |   |   |   |   |   |   |   |   |   C3 > 6: 3 (2.0)
|   |   |   |   |   |   |   |   |   |   |   |   |   |   |   |   |   |   |   |   C2 > 5: 2 (1.0)
|   |   |   |   |   |   |   |   |   |   |   |   |   |   |   |   |   |   C5 > 7
|   |   |   |   |   |   |   |   |   |   |   |   |   |   |   |   |   |   |   C4 <= 7
|   |   |   |   |   |   |   |   |   |   |   |   |   |   |   |   |   |   |   |   C2 <= 5
|   |   |   |   |   |   |   |   |   |   |   |   |   |   |   |   |   |   |   |   |   C3 <= 6
|   |   |   |   |   |   |   |   |   |   |   |   |   |   |   |   |   |   |   |   |   |   C4 <= 6
|   |   |   |   |   |   |   |   |   |   |   |   |   |   |   |   |   |   |   |   |   |   |   C2 <= 4
|   |   |   |   |   |   |   |   |   |   |   |   |   |   |   |   |   |   |   |   |   |   |   |   C3 <= 5: 0 (2.0)
|   |   |   |   |   |   |   |   |   |   |   |   |   |   |   |   |   |   |   |   |   |   |   |   C3 > 5: 1 (3.0)
|   |   |   |   |   |   |   |   |   |   |   |   |   |   |   |   |   |   |   |   |   |   |   C2 > 4: 1 (9.0)
|   |   |   |   |   |   |   |   |   |   |   |   |   |   |   |   |   |   |   |   |   |   C4 > 6
|   |   |   |   |   |   |   |   |   |   |   |   |   |   |   |   |   |   |   |   |   |   |   C2 <= 4: 0 (21.0)
|   |   |   |   |   |   |   |   |   |   |   |   |   |   |   |   |   |   |   |   |   |   |   C2 > 4
|   |   |   |   |   |   |   |   |   |   |   |   |   |   |   |   |   |   |   |   |   |   |   |   C3 <= 5: 1 (7.0)
|   |   |   |   |   |   |   |   |   |   |   |   |   |   |   |   |   |   |   |   |   |   |   |   C3 > 5: 0 (13.0)
|   |   |   |   |   |   |   |   |   |   |   |   |   |   |   |   |   |   |   |   |   C3 > 6: 1 (6.0)
|   |   |   |   |   |   |   |   |   |   |   |   |   |   |   |   |   |   |   |   C2 > 5
|   |   |   |   |   |   |   |   |   |   |   |   |   |   |   |   |   |   |   |   |   C4 <= 6: 3 (1.0)
|   |   |   |   |   |   |   |   |   |   |   |   |   |   |   |   |   |   |   |   |   C4 > 6: 1 (6.0)
|   |   |   |   |   |   |   |   |   |   |   |   |   |   |   |   |   |   |   C4 > 7
|   |   |   |   |   |   |   |   |   |   |   |   |   |   |   |   |   |   |   |   C3 <= 7
|   |   |   |   |   |   |   |   |   |   |   |   |   |   |   |   |   |   |   |   |   C2 <= 4: 1 (19.0)
|   |   |   |   |   |   |   |   |   |   |   |   |   |   |   |   |   |   |   |   |   C2 > 4
|   |   |   |   |   |   |   |   |   |   |   |   |   |   |   |   |   |   |   |   |   |   S3 = H
|   |   |   |   |   |   |   |   |   |   |   |   |   |   |   |   |   |   |   |   |   |   |   S4 = H: 2 (1.0)
|   |   |   |   |   |   |   |   |   |   |   |   |   |   |   |   |   |   |   |   |   |   |   S4 = S: 1 (1.0)
|   |   |   |   |   |   |   |   |   |   |   |   |   |   |   |   |   |   |   |   |   |   |   S4 = D: 1 (1.0)
|   |   |   |   |   |   |   |   |   |   |   |   |   |   |   |   |   |   |   |   |   |   |   S4 = C: 2 (1.0)
|   |   |   |   |   |   |   |   |   |   |   |   |   |   |   |   |   |   |   |   |   |   S3 = S: 1 (3.0)
|   |   |   |   |   |   |   |   |   |   |   |   |   |   |   |   |   |   |   |   |   |   S3 = D: 1 (3.0)
|   |   |   |   |   |   |   |   |   |   |   |   |   |   |   |   |   |   |   |   |   |   S3 = C
|   |   |   |   |   |   |   |   |   |   |   |   |   |   |   |   |   |   |   |   |   |   |   C3 <= 6: 2 (4.0)
|   |   |   |   |   |   |   |   |   |   |   |   |   |   |   |   |   |   |   |   |   |   |   C3 > 6: 1 (1.0)
|   |   |   |   |   |   |   |   |   |   |   |   |   |   |   |   |   |   |   |   C3 > 7: 3 (4.0)
|   |   |   |   |   |   |   |   |   |   |   |   |   |   |   |   |   C1 > 3
|   |   |   |   |   |   |   |   |   |   |   |   |   |   |   |   |   |   C5 <= 7
|   |   |   |   |   |   |   |   |   |   |   |   |   |   |   |   |   |   |   C5 <= 6
|   |   |   |   |   |   |   |   |   |   |   |   |   |   |   |   |   |   |   |   S2 = H: FH (1.0)
|   |   |   |   |   |   |   |   |   |   |   |   |   |   |   |   |   |   |   |   S2 = S: 2 (1.0)
|   |   |   |   |   |   |   |   |   |   |   |   |   |   |   |   |   |   |   |   S2 = D: 3 (2.0)
|   |   |   |   |   |   |   |   |   |   |   |   |   |   |   |   |   |   |   |   S2 = C: 3 (0.0)
|   |   |   |   |   |   |   |   |   |   |   |   |   |   |   |   |   |   |   C5 > 6
|   |   |   |   |   |   |   |   |   |   |   |   |   |   |   |   |   |   |   |   C1 <= 4
|   |   |   |   |   |   |   |   |   |   |   |   |   |   |   |   |   |   |   |   |   C4 <= 6: 1 (10.0)
|   |   |   |   |   |   |   |   |   |   |   |   |   |   |   |   |   |   |   |   |   C4 > 6
|   |   |   |   |   |   |   |   |   |   |   |   |   |   |   |   |   |   |   |   |   |   S4 = H: 2 (0.0)
|   |   |   |   |   |   |   |   |   |   |   |   |   |   |   |   |   |   |   |   |   |   S4 = S: 2 (5.0/1.0)
|   |   |   |   |   |   |   |   |   |   |   |   |   |   |   |   |   |   |   |   |   |   S4 = D: 1 (1.0)
|   |   |   |   |   |   |   |   |   |   |   |   |   |   |   |   |   |   |   |   |   |   S4 = C: 2 (0.0)
|   |   |   |   |   |   |   |   |   |   |   |   |   |   |   |   |   |   |   |   C1 > 4
|   |   |   |   |   |   |   |   |   |   |   |   |   |   |   |   |   |   |   |   |   C3 <= 5: FH (1.0)
|   |   |   |   |   |   |   |   |   |   |   |   |   |   |   |   |   |   |   |   |   C3 > 5: 2 (4.0)
|   |   |   |   |   |   |   |   |   |   |   |   |   |   |   |   |   |   C5 > 7
|   |   |   |   |   |   |   |   |   |   |   |   |   |   |   |   |   |   |   C2 <= 4
|   |   |   |   |   |   |   |   |   |   |   |   |   |   |   |   |   |   |   |   C4 <= 7
|   |   |   |   |   |   |   |   |   |   |   |   |   |   |   |   |   |   |   |   |   C3 <= 6: 1 (17.0/1.0)
|   |   |   |   |   |   |   |   |   |   |   |   |   |   |   |   |   |   |   |   |   C3 > 6: 2 (2.0)
|   |   |   |   |   |   |   |   |   |   |   |   |   |   |   |   |   |   |   |   C4 > 7: 2 (4.0)
|   |   |   |   |   |   |   |   |   |   |   |   |   |   |   |   |   |   |   C2 > 4
|   |   |   |   |   |   |   |   |   |   |   |   |   |   |   |   |   |   |   |   C1 <= 4
|   |   |   |   |   |   |   |   |   |   |   |   |   |   |   |   |   |   |   |   |   C2 <= 5
|   |   |   |   |   |   |   |   |   |   |   |   |   |   |   |   |   |   |   |   |   |   C4 <= 7
|   |   |   |   |   |   |   |   |   |   |   |   |   |   |   |   |   |   |   |   |   |   |   C4 <= 6: 1 (10.0)
|   |   |   |   |   |   |   |   |   |   |   |   |   |   |   |   |   |   |   |   |   |   |   C4 > 6
|   |   |   |   |   |   |   |   |   |   |   |   |   |   |   |   |   |   |   |   |   |   |   |   C3 <= 5: 1 (4.0)
|   |   |   |   |   |   |   |   |   |   |   |   |   |   |   |   |   |   |   |   |   |   |   |   C3 > 5
|   |   |   |   |   |   |   |   |   |   |   |   |   |   |   |   |   |   |   |   |   |   |   |   |   C3 <= 6: S (14.0)
|   |   |   |   |   |   |   |   |   |   |   |   |   |   |   |   |   |   |   |   |   |   |   |   |   C3 > 6: 1 (3.0)
|   |   |   |   |   |   |   |   |   |   |   |   |   |   |   |   |   |   |   |   |   |   C4 > 7
|   |   |   |   |   |   |   |   |   |   |   |   |   |   |   |   |   |   |   |   |   |   |   C3 <= 5: 2 (1.0)
|   |   |   |   |   |   |   |   |   |   |   |   |   |   |   |   |   |   |   |   |   |   |   C3 > 5: 1 (9.0)
|   |   |   |   |   |   |   |   |   |   |   |   |   |   |   |   |   |   |   |   |   C2 > 5
|   |   |   |   |   |   |   |   |   |   |   |   |   |   |   |   |   |   |   |   |   |   C4 <= 6: 3 (1.0)
|   |   |   |   |   |   |   |   |   |   |   |   |   |   |   |   |   |   |   |   |   |   C4 > 6: 1 (10.0)
|   |   |   |   |   |   |   |   |   |   |   |   |   |   |   |   |   |   |   |   C1 > 4
|   |   |   |   |   |   |   |   |   |   |   |   |   |   |   |   |   |   |   |   |   C3 <= 5: 3 (2.0)
|   |   |   |   |   |   |   |   |   |   |   |   |   |   |   |   |   |   |   |   |   C3 > 5
|   |   |   |   |   |   |   |   |   |   |   |   |   |   |   |   |   |   |   |   |   |   C3 <= 7
|   |   |   |   |   |   |   |   |   |   |   |   |   |   |   |   |   |   |   |   |   |   |   C1 <= 5
|   |   |   |   |   |   |   |   |   |   |   |   |   |   |   |   |   |   |   |   |   |   |   |   C4 <= 6: 2 (1.0)
|   |   |   |   |   |   |   |   |   |   |   |   |   |   |   |   |   |   |   |   |   |   |   |   C4 > 6: 1 (17.0/1.0)
|   |   |   |   |   |   |   |   |   |   |   |   |   |   |   |   |   |   |   |   |   |   |   C1 > 5: 2 (1.0)
|   |   |   |   |   |   |   |   |   |   |   |   |   |   |   |   |   |   |   |   |   |   C3 > 7: FH (1.0)
|   |   |   |   |   |   |   |   |   |   |   |   |   |   |   |   C2 > 6
|   |   |   |   |   |   |   |   |   |   |   |   |   |   |   |   |   C1 <= 6
|   |   |   |   |   |   |   |   |   |   |   |   |   |   |   |   |   |   C3 <= 7
|   |   |   |   |   |   |   |   |   |   |   |   |   |   |   |   |   |   |   C4 <= 7: 3 (1.0)
|   |   |   |   |   |   |   |   |   |   |   |   |   |   |   |   |   |   |   C4 > 7: 2 (9.0)
|   |   |   |   |   |   |   |   |   |   |   |   |   |   |   |   |   |   C3 > 7: 3 (1.0)
|   |   |   |   |   |   |   |   |   |   |   |   |   |   |   |   |   C1 > 6
|   |   |   |   |   |   |   |   |   |   |   |   |   |   |   |   |   |   S2 = H: FH (1.0)
|   |   |   |   |   |   |   |   |   |   |   |   |   |   |   |   |   |   S2 = S: 4 (1.0)
|   |   |   |   |   |   |   |   |   |   |   |   |   |   |   |   |   |   S2 = D: FH (0.0)
|   |   |   |   |   |   |   |   |   |   |   |   |   |   |   |   |   |   S2 = C: FH (0.0)
|   |   |   |   |   |   |   |   |   |   |   |   |   |   |   C5 > 8
|   |   |   |   |   |   |   |   |   |   |   |   |   |   |   |   C1 <= 4
|   |   |   |   |   |   |   |   |   |   |   |   |   |   |   |   |   C2 <= 6
|   |   |   |   |   |   |   |   |   |   |   |   |   |   |   |   |   |   C1 <= 3
|   |   |   |   |   |   |   |   |   |   |   |   |   |   |   |   |   |   |   C2 <= 4
|   |   |   |   |   |   |   |   |   |   |   |   |   |   |   |   |   |   |   |   C5 <= 9
|   |   |   |   |   |   |   |   |   |   |   |   |   |   |   |   |   |   |   |   |   C4 <= 8
|   |   |   |   |   |   |   |   |   |   |   |   |   |   |   |   |   |   |   |   |   |   C3 <= 7
|   |   |   |   |   |   |   |   |   |   |   |   |   |   |   |   |   |   |   |   |   |   |   S4 = H
|   |   |   |   |   |   |   |   |   |   |   |   |   |   |   |   |   |   |   |   |   |   |   |   C3 <= 6: 0 (14.0)
|   |   |   |   |   |   |   |   |   |   |   |   |   |   |   |   |   |   |   |   |   |   |   |   C3 > 6
|   |   |   |   |   |   |   |   |   |   |   |   |   |   |   |   |   |   |   |   |   |   |   |   |   C4 <= 7: 1 (2.0)
|   |   |   |   |   |   |   |   |   |   |   |   |   |   |   |   |   |   |   |   |   |   |   |   |   C4 > 7: 0 (3.0)
|   |   |   |   |   |   |   |   |   |   |   |   |   |   |   |   |   |   |   |   |   |   |   S4 = S: 0 (14.0)
|   |   |   |   |   |   |   |   |   |   |   |   |   |   |   |   |   |   |   |   |   |   |   S4 = D
|   |   |   |   |   |   |   |   |   |   |   |   |   |   |   |   |   |   |   |   |   |   |   |   C4 <= 6
|   |   |   |   |   |   |   |   |   |   |   |   |   |   |   |   |   |   |   |   |   |   |   |   |   S3 = H: 1 (0.0)
|   |   |   |   |   |   |   |   |   |   |   |   |   |   |   |   |   |   |   |   |   |   |   |   |   S3 = S: 1 (3.0)
|   |   |   |   |   |   |   |   |   |   |   |   |   |   |   |   |   |   |   |   |   |   |   |   |   S3 = D: 0 (2.0)
|   |   |   |   |   |   |   |   |   |   |   |   |   |   |   |   |   |   |   |   |   |   |   |   |   S3 = C: 1 (0.0)
|   |   |   |   |   |   |   |   |   |   |   |   |   |   |   |   |   |   |   |   |   |   |   |   C4 > 6: 0 (11.0)
|   |   |   |   |   |   |   |   |   |   |   |   |   |   |   |   |   |   |   |   |   |   |   S4 = C: 0 (22.0)
|   |   |   |   |   |   |   |   |   |   |   |   |   |   |   |   |   |   |   |   |   |   C3 > 7: 1 (3.0)
|   |   |   |   |   |   |   |   |   |   |   |   |   |   |   |   |   |   |   |   |   C4 > 8: 1 (17.0)
|   |   |   |   |   |   |   |   |   |   |   |   |   |   |   |   |   |   |   |   C5 > 9
|   |   |   |   |   |   |   |   |   |   |   |   |   |   |   |   |   |   |   |   |   C3 <= 5: 0 (44.0)
|   |   |   |   |   |   |   |   |   |   |   |   |   |   |   |   |   |   |   |   |   C3 > 5
|   |   |   |   |   |   |   |   |   |   |   |   |   |   |   |   |   |   |   |   |   |   C4 <= 6: 1 (4.0)
|   |   |   |   |   |   |   |   |   |   |   |   |   |   |   |   |   |   |   |   |   |   C4 > 6
|   |   |   |   |   |   |   |   |   |   |   |   |   |   |   |   |   |   |   |   |   |   |   C4 <= 7
|   |   |   |   |   |   |   |   |   |   |   |   |   |   |   |   |   |   |   |   |   |   |   |   C3 <= 6: 0 (11.0)
|   |   |   |   |   |   |   |   |   |   |   |   |   |   |   |   |   |   |   |   |   |   |   |   C3 > 6: 1 (4.0)
|   |   |   |   |   |   |   |   |   |   |   |   |   |   |   |   |   |   |   |   |   |   |   C4 > 7: 0 (43.0/1.0)
|   |   |   |   |   |   |   |   |   |   |   |   |   |   |   |   |   |   |   C2 > 4
|   |   |   |   |   |   |   |   |   |   |   |   |   |   |   |   |   |   |   |   C3 <= 5
|   |   |   |   |   |   |   |   |   |   |   |   |   |   |   |   |   |   |   |   |   C4 <= 8: 1 (19.0)
|   |   |   |   |   |   |   |   |   |   |   |   |   |   |   |   |   |   |   |   |   C4 > 8
|   |   |   |   |   |   |   |   |   |   |   |   |   |   |   |   |   |   |   |   |   |   C5 <= 9: 2 (2.0)
|   |   |   |   |   |   |   |   |   |   |   |   |   |   |   |   |   |   |   |   |   |   C5 > 9: 1 (4.0)
|   |   |   |   |   |   |   |   |   |   |   |   |   |   |   |   |   |   |   |   C3 > 5
|   |   |   |   |   |   |   |   |   |   |   |   |   |   |   |   |   |   |   |   |   C4 <= 6
|   |   |   |   |   |   |   |   |   |   |   |   |   |   |   |   |   |   |   |   |   |   C2 <= 5: 1 (9.0)
|   |   |   |   |   |   |   |   |   |   |   |   |   |   |   |   |   |   |   |   |   |   C2 > 5: 3 (1.0)
|   |   |   |   |   |   |   |   |   |   |   |   |   |   |   |   |   |   |   |   |   C4 > 6
|   |   |   |   |   |   |   |   |   |   |   |   |   |   |   |   |   |   |   |   |   |   C2 <= 5
|   |   |   |   |   |   |   |   |   |   |   |   |   |   |   |   |   |   |   |   |   |   |   C5 <= 9
|   |   |   |   |   |   |   |   |   |   |   |   |   |   |   |   |   |   |   |   |   |   |   |   C4 <= 8
|   |   |   |   |   |   |   |   |   |   |   |   |   |   |   |   |   |   |   |   |   |   |   |   |   C3 <= 7: 0 (27.0/2.0)
|   |   |   |   |   |   |   |   |   |   |   |   |   |   |   |   |   |   |   |   |   |   |   |   |   C3 > 7: 1 (2.0)
|   |   |   |   |   |   |   |   |   |   |   |   |   |   |   |   |   |   |   |   |   |   |   |   C4 > 8: 1 (11.0)
|   |   |   |   |   |   |   |   |   |   |   |   |   |   |   |   |   |   |   |   |   |   |   C5 > 9
|   |   |   |   |   |   |   |   |   |   |   |   |   |   |   |   |   |   |   |   |   |   |   |   C4 <= 8
|   |   |   |   |   |   |   |   |   |   |   |   |   |   |   |   |   |   |   |   |   |   |   |   |   C3 <= 7
|   |   |   |   |   |   |   |   |   |   |   |   |   |   |   |   |   |   |   |   |   |   |   |   |   |   C4 <= 7
|   |   |   |   |   |   |   |   |   |   |   |   |   |   |   |   |   |   |   |   |   |   |   |   |   |   |   S3 = H: 0 (0.0)
|   |   |   |   |   |   |   |   |   |   |   |   |   |   |   |   |   |   |   |   |   |   |   |   |   |   |   S3 = S: 0 (0.0)
|   |   |   |   |   |   |   |   |   |   |   |   |   |   |   |   |   |   |   |   |   |   |   |   |   |   |   S3 = D: 0 (3.0)
|   |   |   |   |   |   |   |   |   |   |   |   |   |   |   |   |   |   |   |   |   |   |   |   |   |   |   S3 = C: 1 (2.0)
|   |   |   |   |   |   |   |   |   |   |   |   |   |   |   |   |   |   |   |   |   |   |   |   |   |   C4 > 7: 0 (17.0)
|   |   |   |   |   |   |   |   |   |   |   |   |   |   |   |   |   |   |   |   |   |   |   |   |   C3 > 7: 1 (4.0)
|   |   |   |   |   |   |   |   |   |   |   |   |   |   |   |   |   |   |   |   |   |   |   |   C4 > 8: 0 (33.0/1.0)
|   |   |   |   |   |   |   |   |   |   |   |   |   |   |   |   |   |   |   |   |   |   C2 > 5
|   |   |   |   |   |   |   |   |   |   |   |   |   |   |   |   |   |   |   |   |   |   |   C3 <= 6: 1 (21.0)
|   |   |   |   |   |   |   |   |   |   |   |   |   |   |   |   |   |   |   |   |   |   |   C3 > 6
|   |   |   |   |   |   |   |   |   |   |   |   |   |   |   |   |   |   |   |   |   |   |   |   C4 <= 7: 1 (7.0)
|   |   |   |   |   |   |   |   |   |   |   |   |   |   |   |   |   |   |   |   |   |   |   |   C4 > 7
|   |   |   |   |   |   |   |   |   |   |   |   |   |   |   |   |   |   |   |   |   |   |   |   |   C3 <= 7
|   |   |   |   |   |   |   |   |   |   |   |   |   |   |   |   |   |   |   |   |   |   |   |   |   |   C4 <= 8: 0 (23.0)
|   |   |   |   |   |   |   |   |   |   |   |   |   |   |   |   |   |   |   |   |   |   |   |   |   |   C4 > 8
|   |   |   |   |   |   |   |   |   |   |   |   |   |   |   |   |   |   |   |   |   |   |   |   |   |   |   C5 <= 9: 1 (5.0)
|   |   |   |   |   |   |   |   |   |   |   |   |   |   |   |   |   |   |   |   |   |   |   |   |   |   |   C5 > 9: 0 (11.0)
|   |   |   |   |   |   |   |   |   |   |   |   |   |   |   |   |   |   |   |   |   |   |   |   |   C3 > 7
|   |   |   |   |   |   |   |   |   |   |   |   |   |   |   |   |   |   |   |   |   |   |   |   |   |   C4 <= 8: 1 (8.0)
|   |   |   |   |   |   |   |   |   |   |   |   |   |   |   |   |   |   |   |   |   |   |   |   |   |   C4 > 8
|   |   |   |   |   |   |   |   |   |   |   |   |   |   |   |   |   |   |   |   |   |   |   |   |   |   |   C5 <= 9: 1 (3.0)
|   |   |   |   |   |   |   |   |   |   |   |   |   |   |   |   |   |   |   |   |   |   |   |   |   |   |   C5 > 9: 0 (6.0)
|   |   |   |   |   |   |   |   |   |   |   |   |   |   |   |   |   |   C1 > 3
|   |   |   |   |   |   |   |   |   |   |   |   |   |   |   |   |   |   |   C2 <= 4
|   |   |   |   |   |   |   |   |   |   |   |   |   |   |   |   |   |   |   |   C5 <= 9
|   |   |   |   |   |   |   |   |   |   |   |   |   |   |   |   |   |   |   |   |   C4 <= 8: 1 (21.0/3.0)
|   |   |   |   |   |   |   |   |   |   |   |   |   |   |   |   |   |   |   |   |   C4 > 8: 2 (6.0)
|   |   |   |   |   |   |   |   |   |   |   |   |   |   |   |   |   |   |   |   C5 > 9
|   |   |   |   |   |   |   |   |   |   |   |   |   |   |   |   |   |   |   |   |   C4 <= 8
|   |   |   |   |   |   |   |   |   |   |   |   |   |   |   |   |   |   |   |   |   |   C3 <= 7
|   |   |   |   |   |   |   |   |   |   |   |   |   |   |   |   |   |   |   |   |   |   |   S1 = H
|   |   |   |   |   |   |   |   |   |   |   |   |   |   |   |   |   |   |   |   |   |   |   |   C4 <= 7: 2 (3.0)
|   |   |   |   |   |   |   |   |   |   |   |   |   |   |   |   |   |   |   |   |   |   |   |   C4 > 7: 1 (1.0)
|   |   |   |   |   |   |   |   |   |   |   |   |   |   |   |   |   |   |   |   |   |   |   S1 = S: 1 (6.0)
|   |   |   |   |   |   |   |   |   |   |   |   |   |   |   |   |   |   |   |   |   |   |   S1 = D: 1 (4.0)
|   |   |   |   |   |   |   |   |   |   |   |   |   |   |   |   |   |   |   |   |   |   |   S1 = C: 1 (10.0)
|   |   |   |   |   |   |   |   |   |   |   |   |   |   |   |   |   |   |   |   |   |   C3 > 7: 2 (3.0)
|   |   |   |   |   |   |   |   |   |   |   |   |   |   |   |   |   |   |   |   |   C4 > 8: 1 (19.0)
|   |   |   |   |   |   |   |   |   |   |   |   |   |   |   |   |   |   |   C2 > 4
|   |   |   |   |   |   |   |   |   |   |   |   |   |   |   |   |   |   |   |   C3 <= 5: 1 (25.0)
|   |   |   |   |   |   |   |   |   |   |   |   |   |   |   |   |   |   |   |   C3 > 5
|   |   |   |   |   |   |   |   |   |   |   |   |   |   |   |   |   |   |   |   |   C4 <= 6: 1 (10.0)
|   |   |   |   |   |   |   |   |   |   |   |   |   |   |   |   |   |   |   |   |   C4 > 6
|   |   |   |   |   |   |   |   |   |   |   |   |   |   |   |   |   |   |   |   |   |   C5 <= 9
|   |   |   |   |   |   |   |   |   |   |   |   |   |   |   |   |   |   |   |   |   |   |   C4 <= 8
|   |   |   |   |   |   |   |   |   |   |   |   |   |   |   |   |   |   |   |   |   |   |   |   C3 <= 7
|   |   |   |   |   |   |   |   |   |   |   |   |   |   |   |   |   |   |   |   |   |   |   |   |   C2 <= 5
|   |   |   |   |   |   |   |   |   |   |   |   |   |   |   |   |   |   |   |   |   |   |   |   |   |   C3 <= 6: 0 (22.0)
|   |   |   |   |   |   |   |   |   |   |   |   |   |   |   |   |   |   |   |   |   |   |   |   |   |   C3 > 6
